#include <thrust/sort.h>
#include <thrust/device_ptr.h>
#include <unistd.h>
#include <stdexcept>
#include "real.h"

////////////////
// B0 matrix //
////////////////

iris_real b0[][1] = {
    { 1.     }
};

////////////////
// B1 matrix //
////////////////

iris_real b1[][3] = {
    { 0.5    , -1.    , 0.5     },
    { -0.5    , 0.    , 0.5     },
    { 0.5    , 1.    , 0.5     }
};

////////////////
// B2 matrix //
////////////////

iris_real b2[][5] = {
    { 0.25    , -1.    , 1.5    , -1.    , 0.25     },
    { -0.25    , 0.5    , 0.    , -0.5    , 0.25     },
    { 0.25    , 0.    , -0.5    , 0.    , 0.25     },
    { -0.25    , -0.5    , 0.    , 0.5    , 0.25     },
    { 0.25    , 1.    , 1.5    , 1.    , 0.25     }
};

////////////////
// B3 matrix //
////////////////

iris_real b3[][7] = {
    { 0.125    , -0.75    , 1.875    , -2.5    , 1.875    , -0.75    , 0.125     },
    { -0.125    , 0.5    , -0.625    , 0.    , 0.625    , -0.5    , 0.125     },
    { 0.125    , -0.25    , -0.125    , 0.5    , -0.125    , -0.25    , 0.125     },
    { -0.125    , 0.    , 0.375    , 0.    , -0.375    , 0.    , 0.125     },
    { 0.125    , 0.25    , -0.125    , -0.5    , -0.125    , 0.25    , 0.125     },
    { -0.125    , -0.5    , -0.625    , 0.    , 0.625    , 0.5    , 0.125     },
    { 0.125    , 0.75    , 1.875    , 2.5    , 1.875    , 0.75    , 0.125     }
};

////////////////
// B4 matrix //
////////////////

iris_real b4[][9] = {
    { 6.2500e-2, -0.5    , 1.75    , -3.5    , 4.375    , -3.5    , 1.75    , -0.5    , 6.2500e-2 },
    { -6.2500e-2, 0.375    , -0.875    , 0.875    , 0.    , -0.875    , 0.875    , -0.375    , 6.2500e-2 },
    { 6.2500e-2, -0.25    , 0.25    , 0.25    , -0.625    , 0.25    , 0.25    , -0.25    , 6.2500e-2 },
    { -6.2500e-2, 0.125    , 0.125    , -0.375    , 0.    , 0.375    , -0.125    , -0.125    , 6.2500e-2 },
    { 6.2500e-2, 0.    , -0.25    , 0.    , 0.375    , 0.    , -0.25    , 0.    , 6.2500e-2 },
    { -6.2500e-2, -0.125    , 0.125    , 0.375    , 0.    , -0.375    , -0.125    , 0.125    , 6.2500e-2 },
    { 6.2500e-2, 0.25    , 0.25    , -0.25    , -0.625    , -0.25    , 0.25    , 0.25    , 6.2500e-2 },
    { -6.2500e-2, -0.375    , -0.875    , -0.875    , 0.    , 0.875    , 0.875    , 0.375    , 6.2500e-2 },
    { 6.2500e-2, 0.5    , 1.75    , 3.5    , 4.375    , 3.5    , 1.75    , 0.5    , 6.2500e-2 }
};

////////////////
// B5 matrix //
////////////////

iris_real b5[][11] = {
    { 3.12500e-2, -0.3125    , 1.40625    , -3.75    , 6.5625    , -7.875    , 6.5625    , -3.75    , 1.40625    , -0.3125    , 3.12500e-2 },
    { -3.12500e-2, 0.25    , -0.84375    , 1.5    , -1.3125    , 0.    , 1.3125    , -1.5    , 0.84375    , -0.25    , 3.12500e-2 },
    { 3.12500e-2, -0.1875    , 0.40625    , -0.25    , -0.4375    , 0.875    , -0.4375    , -0.25    , 0.40625    , -0.1875    , 3.12500e-2 },
    { -3.12500e-2, 0.125    , -9.37500e-2, -0.25    , 0.4375    , 0.    , -0.4375    , 0.25    , 9.37500e-2, -0.125    , 3.12500e-2 },
    { 3.12500e-2, -6.2500e-2, -9.37500e-2, 0.25    , 6.2500e-2, -0.375    , 6.2500e-2, 0.25    , -9.37500e-2, -6.2500e-2, 3.12500e-2 },
    { -3.12500e-2, 0.    , 0.15625    , 0.    , -0.3125    , 0.    , 0.3125    , 0.    , -0.15625    , 0.    , 3.12500e-2 },
    { 3.12500e-2, 6.2500e-2, -9.37500e-2, -0.25    , 6.2500e-2, 0.375    , 6.2500e-2, -0.25    , -9.37500e-2, 6.2500e-2, 3.12500e-2 },
    { -3.12500e-2, -0.125    , -9.37500e-2, 0.25    , 0.4375    , 0.    , -0.4375    , -0.25    , 9.37500e-2, 0.125    , 3.12500e-2 },
    { 3.12500e-2, 0.1875    , 0.40625    , 0.25    , -0.4375    , -0.875    , -0.4375    , 0.25    , 0.40625    , 0.1875    , 3.12500e-2 },
    { -3.12500e-2, -0.25    , -0.84375    , -1.5    , -1.3125    , 0.    , 1.3125    , 1.5    , 0.84375    , 0.25    , 3.12500e-2 },
    { 3.12500e-2, 0.3125    , 1.40625    , 3.75    , 6.5625    , 7.875    , 6.5625    , 3.75    , 1.40625    , 0.3125    , 3.12500e-2 }
};

////////////////
// B6 matrix //
////////////////

iris_real b6[][13] = {
    { 1.562500e-2, -0.1875    , 1.03125    , -3.4375    , 7.734375    , -12.375    , 14.4375    , -12.375    , 7.734375    , -3.4375    , 1.03125    , -0.1875    , 1.562500e-2 },
    { -1.562500e-2, 0.15625    , -0.6875    , 1.71875    , -2.578125    , 2.0625    , 0.    , -2.0625    , 2.578125    , -1.71875    , 0.6875    , -0.15625    , 1.562500e-2 },
    { 1.562500e-2, -0.125    , 0.40625    , -0.625    , 0.234375    , 0.75    , -1.3125    , 0.75    , 0.234375    , -0.625    , 0.40625    , -0.125    , 1.562500e-2 },
    { -1.562500e-2, 9.37500e-2, -0.1875    , 3.12500e-2, 0.421875    , -0.5625    , 0.    , 0.5625    , -0.421875    , -3.12500e-2, 0.1875    , -9.37500e-2, 1.562500e-2 },
    { 1.562500e-2, -6.2500e-2, 3.12500e-2, 0.1875    , -0.265625    , -0.125    , 0.4375    , -0.125    , -0.265625    , 0.1875    , 3.12500e-2, -6.2500e-2, 1.562500e-2 },
    { -1.562500e-2, 3.12500e-2, 6.2500e-2, -0.15625    , -7.812500e-2, 0.3125    , 0.    , -0.3125    , 7.812500e-2, 0.15625    , -6.2500e-2, -3.12500e-2, 1.562500e-2 },
    { 1.562500e-2, 0.    , -9.37500e-2, 0.    , 0.234375    , 0.    , -0.3125    , 0.    , 0.234375    , 0.    , -9.37500e-2, 0.    , 1.562500e-2 },
    { -1.562500e-2, -3.12500e-2, 6.2500e-2, 0.15625    , -7.812500e-2, -0.3125    , 0.    , 0.3125    , 7.812500e-2, -0.15625    , -6.2500e-2, 3.12500e-2, 1.562500e-2 },
    { 1.562500e-2, 6.2500e-2, 3.12500e-2, -0.1875    , -0.265625    , 0.125    , 0.4375    , 0.125    , -0.265625    , -0.1875    , 3.12500e-2, 6.2500e-2, 1.562500e-2 },
    { -1.562500e-2, -9.37500e-2, -0.1875    , -3.12500e-2, 0.421875    , 0.5625    , 0.    , -0.5625    , -0.421875    , 3.12500e-2, 0.1875    , 9.37500e-2, 1.562500e-2 },
    { 1.562500e-2, 0.125    , 0.40625    , 0.625    , 0.234375    , -0.75    , -1.3125    , -0.75    , 0.234375    , 0.625    , 0.40625    , 0.125    , 1.562500e-2 },
    { -1.562500e-2, -0.15625    , -0.6875    , -1.71875    , -2.578125    , -2.0625    , 0.    , 2.0625    , 2.578125    , 1.71875    , 0.6875    , 0.15625    , 1.562500e-2 },
    { 1.562500e-2, 0.1875    , 1.03125    , 3.4375    , 7.734375    , 12.375    , 14.4375    , 12.375    , 7.734375    , 3.4375    , 1.03125    , 0.1875    , 1.562500e-2 }
};

////////////////
// B7 matrix //
////////////////

iris_real b7[][15] = {
    { 7.8125000e-3, -0.109375    , 0.7109375    , -2.84375    , 7.8203125    , -15.640625    , 23.4609375    , -26.8125    , 23.4609375    , -15.640625    , 7.8203125    , -2.84375    , 0.7109375    , -0.109375    , 7.8125000e-3 },
    { -7.8125000e-3, 9.37500e-2, -0.5078125    , 1.625    , -3.3515625    , 4.46875    , -3.3515625    , 0.    , 3.3515625    , -4.46875    , 3.3515625    , -1.625    , 0.5078125    , -9.37500e-2, 7.8125000e-3 },
    { 7.8125000e-3, -7.812500e-2, 0.3359375    , -0.78125    , 0.9453125    , -0.171875    , -1.2890625    , 2.0625    , -1.2890625    , -0.171875    , 0.9453125    , -0.78125    , 0.3359375    , -7.812500e-2, 7.8125000e-3 },
    { -7.8125000e-3, 6.2500e-2, -0.1953125    , 0.25    , 8.5937500e-2, -0.6875    , 0.7734375    , 0.    , -0.7734375    , 0.6875    , -8.5937500e-2, -0.25    , 0.1953125    , -6.2500e-2, 7.8125000e-3 },
    { 7.8125000e-3, -4.687500e-2, 8.5937500e-2, 3.12500e-2, -0.3046875    , 0.296875    , 0.2109375    , -0.5625    , 0.2109375    , 0.296875    , -0.3046875    , 3.12500e-2, 8.5937500e-2, -4.687500e-2, 7.8125000e-3 },
    { -7.8125000e-3, 3.12500e-2, -7.8125000e-3, -0.125    , 0.1484375    , 0.15625    , -0.3515625    , 0.    , 0.3515625    , -0.15625    , -0.1484375    , 0.125    , 7.8125000e-3, -3.12500e-2, 7.8125000e-3 },
    { 7.8125000e-3, -1.562500e-2, -3.9062500e-2, 9.37500e-2, 7.0312500e-2, -0.234375    , -3.9062500e-2, 0.3125    , -3.9062500e-2, -0.234375    , 7.0312500e-2, 9.37500e-2, -3.9062500e-2, -1.562500e-2, 7.8125000e-3 },
    { -7.8125000e-3, 0.    , 5.4687500e-2, 0.    , -0.1640625    , 0.    , 0.2734375    , 0.    , -0.2734375    , 0.    , 0.1640625    , 0.    , -5.4687500e-2, 0.    , 7.8125000e-3 },
    { 7.8125000e-3, 1.562500e-2, -3.9062500e-2, -9.37500e-2, 7.0312500e-2, 0.234375    , -3.9062500e-2, -0.3125    , -3.9062500e-2, 0.234375    , 7.0312500e-2, -9.37500e-2, -3.9062500e-2, 1.562500e-2, 7.8125000e-3 },
    { -7.8125000e-3, -3.12500e-2, -7.8125000e-3, 0.125    , 0.1484375    , -0.15625    , -0.3515625    , 0.    , 0.3515625    , 0.15625    , -0.1484375    , -0.125    , 7.8125000e-3, 3.12500e-2, 7.8125000e-3 },
    { 7.8125000e-3, 4.687500e-2, 8.5937500e-2, -3.12500e-2, -0.3046875    , -0.296875    , 0.2109375    , 0.5625    , 0.2109375    , -0.296875    , -0.3046875    , -3.12500e-2, 8.5937500e-2, 4.687500e-2, 7.8125000e-3 },
    { -7.8125000e-3, -6.2500e-2, -0.1953125    , -0.25    , 8.5937500e-2, 0.6875    , 0.7734375    , 0.    , -0.7734375    , -0.6875    , -8.5937500e-2, 0.25    , 0.1953125    , 6.2500e-2, 7.8125000e-3 },
    { 7.8125000e-3, 7.812500e-2, 0.3359375    , 0.78125    , 0.9453125    , 0.171875    , -1.2890625    , -2.0625    , -1.2890625    , 0.171875    , 0.9453125    , 0.78125    , 0.3359375    , 7.812500e-2, 7.8125000e-3 },
    { -7.8125000e-3, -9.37500e-2, -0.5078125    , -1.625    , -3.3515625    , -4.46875    , -3.3515625    , 0.    , 3.3515625    , 4.46875    , 3.3515625    , 1.625    , 0.5078125    , 9.37500e-2, 7.8125000e-3 },
    { 7.8125000e-3, 0.109375    , 0.7109375    , 2.84375    , 7.8203125    , 15.640625    , 23.4609375    , 26.8125    , 23.4609375    , 15.640625    , 7.8203125    , 2.84375    , 0.7109375    , 0.109375    , 7.8125000e-3 }
};

////////////////
// B8 matrix //
////////////////

iris_real b8[][17] = {
    { 3.90625000e-3, -6.2500e-2, 0.46875    , -2.1875    , 7.109375    , -17.0625    , 31.28125    , -44.6875    , 50.2734375    , -44.6875    , 31.28125    , -17.0625    , 7.109375    , -2.1875    , 0.46875    , -6.2500e-2, 3.90625000e-3 },
    { -3.90625000e-3, 5.4687500e-2, -0.3515625    , 1.3671875    , -3.5546875    , 6.3984375    , -7.8203125    , 5.5859375    , 0.    , -5.5859375    , 7.8203125    , -6.3984375    , 3.5546875    , -1.3671875    , 0.3515625    , -5.4687500e-2, 3.90625000e-3 },
    { 3.90625000e-3, -4.687500e-2, 0.25    , -0.765625    , 1.421875    , -1.421875    , 0.    , 2.234375    , -3.3515625    , 2.234375    , 0.    , -1.421875    , 1.421875    , -0.765625    , 0.25    , -4.687500e-2, 3.90625000e-3 },
    { -3.90625000e-3, 3.9062500e-2, -0.1640625    , 0.3515625    , -0.3046875    , -0.3046875    , 1.1171875    , -1.1171875    , 0.    , 1.1171875    , -1.1171875    , 0.3046875    , 0.3046875    , -0.3515625    , 0.1640625    , -3.9062500e-2, 3.90625000e-3 },
    { 3.90625000e-3, -3.12500e-2, 9.37500e-2, -9.37500e-2, -0.140625    , 0.46875    , -0.34375    , -0.34375    , 0.7734375    , -0.34375    , -0.34375    , 0.46875    , -0.140625    , -9.37500e-2, 9.37500e-2, -3.12500e-2, 3.90625000e-3 },
    { -3.90625000e-3, 2.3437500e-2, -3.9062500e-2, -3.9062500e-2, 0.1953125    , -0.1328125    , -0.2578125    , 0.4296875    , 0.    , -0.4296875    , 0.2578125    , 0.1328125    , -0.1953125    , 3.9062500e-2, 3.9062500e-2, -2.3437500e-2, 3.90625000e-3 },
    { 3.90625000e-3, -1.562500e-2, 0.    , 7.812500e-2, -7.812500e-2, -0.140625    , 0.25    , 7.812500e-2, -0.3515625    , 7.812500e-2, 0.25    , -0.140625    , -7.812500e-2, 7.812500e-2, 0.    , -1.562500e-2, 3.90625000e-3 },
    { -3.90625000e-3, 7.8125000e-3, 2.3437500e-2, -5.4687500e-2, -5.4687500e-2, 0.1640625    , 5.4687500e-2, -0.2734375    , 0.    , 0.2734375    , -5.4687500e-2, -0.1640625    , 5.4687500e-2, 5.4687500e-2, -2.3437500e-2, -7.8125000e-3, 3.90625000e-3 },
    { 3.90625000e-3, 0.    , -3.12500e-2, 0.    , 0.109375    , 0.    , -0.21875    , 0.    , 0.2734375    , 0.    , -0.21875    , 0.    , 0.109375    , 0.    , -3.12500e-2, 0.    , 3.90625000e-3 },
    { -3.90625000e-3, -7.8125000e-3, 2.3437500e-2, 5.4687500e-2, -5.4687500e-2, -0.1640625    , 5.4687500e-2, 0.2734375    , 0.    , -0.2734375    , -5.4687500e-2, 0.1640625    , 5.4687500e-2, -5.4687500e-2, -2.3437500e-2, 7.8125000e-3, 3.90625000e-3 },
    { 3.90625000e-3, 1.562500e-2, 0.    , -7.812500e-2, -7.812500e-2, 0.140625    , 0.25    , -7.812500e-2, -0.3515625    , -7.812500e-2, 0.25    , 0.140625    , -7.812500e-2, -7.812500e-2, 0.    , 1.562500e-2, 3.90625000e-3 },
    { -3.90625000e-3, -2.3437500e-2, -3.9062500e-2, 3.9062500e-2, 0.1953125    , 0.1328125    , -0.2578125    , -0.4296875    , 0.    , 0.4296875    , 0.2578125    , -0.1328125    , -0.1953125    , -3.9062500e-2, 3.9062500e-2, 2.3437500e-2, 3.90625000e-3 },
    { 3.90625000e-3, 3.12500e-2, 9.37500e-2, 9.37500e-2, -0.140625    , -0.46875    , -0.34375    , 0.34375    , 0.7734375    , 0.34375    , -0.34375    , -0.46875    , -0.140625    , 9.37500e-2, 9.37500e-2, 3.12500e-2, 3.90625000e-3 },
    { -3.90625000e-3, -3.9062500e-2, -0.1640625    , -0.3515625    , -0.3046875    , 0.3046875    , 1.1171875    , 1.1171875    , 0.    , -1.1171875    , -1.1171875    , -0.3046875    , 0.3046875    , 0.3515625    , 0.1640625    , 3.9062500e-2, 3.90625000e-3 },
    { 3.90625000e-3, 4.687500e-2, 0.25    , 0.765625    , 1.421875    , 1.421875    , 0.    , -2.234375    , -3.3515625    , -2.234375    , 0.    , 1.421875    , 1.421875    , 0.765625    , 0.25    , 4.687500e-2, 3.90625000e-3 },
    { -3.90625000e-3, -5.4687500e-2, -0.3515625    , -1.3671875    , -3.5546875    , -6.3984375    , -7.8203125    , -5.5859375    , 0.    , 5.5859375    , 7.8203125    , 6.3984375    , 3.5546875    , 1.3671875    , 0.3515625    , 5.4687500e-2, 3.90625000e-3 },
    { 3.90625000e-3, 6.2500e-2, 0.46875    , 2.1875    , 7.109375    , 17.0625    , 31.28125    , 44.6875    , 50.2734375    , 44.6875    , 31.28125    , 17.0625    , 7.109375    , 2.1875    , 0.46875    , 6.2500e-2, 3.90625000e-3 }
};

////////////////
// B9 matrix //
////////////////

iris_real b9[][19] = {
    { 1.953125000e-3, -3.51562500e-2, 0.298828125    , -1.59375    , 5.9765625    , -16.734375    , 36.2578125    , -62.15625    , 85.46484375    , -94.9609375    , 85.46484375    , -62.15625    , 36.2578125    , -16.734375    , 5.9765625    , -1.59375    , 0.298828125    , -3.51562500e-2, 1.953125000e-3 },
    { -1.953125000e-3, 3.12500e-2, -0.232421875    , 1.0625    , -3.3203125    , 7.4375    , -12.0859375    , 13.8125    , -9.49609375    , 0.    , 9.49609375    , -13.8125    , 12.0859375    , -7.4375    , 3.3203125    , -1.0625    , 0.232421875    , -3.12500e-2, 1.953125000e-3 },
    { 1.953125000e-3, -2.73437500e-2, 0.173828125    , -0.65625    , 1.6015625    , -2.515625    , 2.1328125    , 0.40625    , -3.91015625    , 5.5859375    , -3.91015625    , 0.40625    , 2.1328125    , -2.515625    , 1.6015625    , -0.65625    , 0.173828125    , -2.73437500e-2, 1.953125000e-3 },
    { -1.953125000e-3, 2.3437500e-2, -0.123046875    , 0.359375    , -0.5859375    , 0.328125    , 0.7109375    , -1.828125    , 1.67578125    , 0.    , -1.67578125    , 1.828125    , -0.7109375    , -0.328125    , 0.5859375    , -0.359375    , 0.123046875    , -2.3437500e-2, 1.953125000e-3 },
    { 1.953125000e-3, -1.95312500e-2, 8.007812500e-2, -0.15625    , 7.0312500e-2, 0.328125    , -0.7109375    , 0.40625    , 0.55859375    , -1.1171875    , 0.55859375    , 0.40625    , -0.7109375    , 0.328125    , 7.0312500e-2, -0.15625    , 8.007812500e-2, -1.95312500e-2, 1.953125000e-3 },
    { -1.953125000e-3, 1.562500e-2, -4.492187500e-2, 3.12500e-2, 0.1171875    , -0.28125    , 0.1015625    , 0.40625    , -0.55859375    , 0.    , 0.55859375    , -0.40625    , -0.1015625    , 0.28125    , -0.1171875    , -3.12500e-2, 4.492187500e-2, -1.562500e-2, 1.953125000e-3 },
    { 1.953125000e-3, -1.17187500e-2, 1.757812500e-2, 3.12500e-2, -0.1171875    , 4.687500e-2, 0.2265625    , -0.28125    , -0.12890625    , 0.4296875    , -0.12890625    , -0.28125    , 0.2265625    , 4.687500e-2, -0.1171875    , 3.12500e-2, 1.757812500e-2, -1.17187500e-2, 1.953125000e-3 },
    { -1.953125000e-3, 7.8125000e-3, 1.953125000e-3, -4.687500e-2, 3.9062500e-2, 0.109375    , -0.1640625    , -0.109375    , 0.30078125    , 0.    , -0.30078125    , 0.109375    , 0.1640625    , -0.109375    , -3.9062500e-2, 4.687500e-2, -1.953125000e-3, -7.8125000e-3, 1.953125000e-3 },
    { 1.953125000e-3, -3.90625000e-3, -1.367187500e-2, 3.12500e-2, 3.9062500e-2, -0.109375    , -5.4687500e-2, 0.21875    , 2.73437500e-2, -0.2734375    , 2.73437500e-2, 0.21875    , -5.4687500e-2, -0.109375    , 3.9062500e-2, 3.12500e-2, -1.367187500e-2, -3.90625000e-3, 1.953125000e-3 },
    { -1.953125000e-3, 0.    , 1.757812500e-2, 0.    , -7.0312500e-2, 0.    , 0.1640625    , 0.    , -0.24609375    , 0.    , 0.24609375    , 0.    , -0.1640625    , 0.    , 7.0312500e-2, 0.    , -1.757812500e-2, 0.    , 1.953125000e-3 },
    { 1.953125000e-3, 3.90625000e-3, -1.367187500e-2, -3.12500e-2, 3.9062500e-2, 0.109375    , -5.4687500e-2, -0.21875    , 2.73437500e-2, 0.2734375    , 2.73437500e-2, -0.21875    , -5.4687500e-2, 0.109375    , 3.9062500e-2, -3.12500e-2, -1.367187500e-2, 3.90625000e-3, 1.953125000e-3 },
    { -1.953125000e-3, -7.8125000e-3, 1.953125000e-3, 4.687500e-2, 3.9062500e-2, -0.109375    , -0.1640625    , 0.109375    , 0.30078125    , 0.    , -0.30078125    , -0.109375    , 0.1640625    , 0.109375    , -3.9062500e-2, -4.687500e-2, -1.953125000e-3, 7.8125000e-3, 1.953125000e-3 },
    { 1.953125000e-3, 1.17187500e-2, 1.757812500e-2, -3.12500e-2, -0.1171875    , -4.687500e-2, 0.2265625    , 0.28125    , -0.12890625    , -0.4296875    , -0.12890625    , 0.28125    , 0.2265625    , -4.687500e-2, -0.1171875    , -3.12500e-2, 1.757812500e-2, 1.17187500e-2, 1.953125000e-3 },
    { -1.953125000e-3, -1.562500e-2, -4.492187500e-2, -3.12500e-2, 0.1171875    , 0.28125    , 0.1015625    , -0.40625    , -0.55859375    , 0.    , 0.55859375    , 0.40625    , -0.1015625    , -0.28125    , -0.1171875    , 3.12500e-2, 4.492187500e-2, 1.562500e-2, 1.953125000e-3 },
    { 1.953125000e-3, 1.95312500e-2, 8.007812500e-2, 0.15625    , 7.0312500e-2, -0.328125    , -0.7109375    , -0.40625    , 0.55859375    , 1.1171875    , 0.55859375    , -0.40625    , -0.7109375    , -0.328125    , 7.0312500e-2, 0.15625    , 8.007812500e-2, 1.95312500e-2, 1.953125000e-3 },
    { -1.953125000e-3, -2.3437500e-2, -0.123046875    , -0.359375    , -0.5859375    , -0.328125    , 0.7109375    , 1.828125    , 1.67578125    , 0.    , -1.67578125    , -1.828125    , -0.7109375    , 0.328125    , 0.5859375    , 0.359375    , 0.123046875    , 2.3437500e-2, 1.953125000e-3 },
    { 1.953125000e-3, 2.73437500e-2, 0.173828125    , 0.65625    , 1.6015625    , 2.515625    , 2.1328125    , -0.40625    , -3.91015625    , -5.5859375    , -3.91015625    , -0.40625    , 2.1328125    , 2.515625    , 1.6015625    , 0.65625    , 0.173828125    , 2.73437500e-2, 1.953125000e-3 },
    { -1.953125000e-3, -3.12500e-2, -0.232421875    , -1.0625    , -3.3203125    , -7.4375    , -12.0859375    , -13.8125    , -9.49609375    , 0.    , 9.49609375    , 13.8125    , 12.0859375    , 7.4375    , 3.3203125    , 1.0625    , 0.232421875    , 3.12500e-2, 1.953125000e-3 },
    { 1.953125000e-3, 3.51562500e-2, 0.298828125    , 1.59375    , 5.9765625    , 16.734375    , 36.2578125    , 62.15625    , 85.46484375    , 94.9609375    , 85.46484375    , 62.15625    , 36.2578125    , 16.734375    , 5.9765625    , 1.59375    , 0.298828125    , 3.51562500e-2, 1.953125000e-3 }
};

////////////////
// B10 matrix //
////////////////

iris_real b10[][21] = {
    { 9.7656250000e-4, -1.95312500e-2, 0.185546875    , -1.11328125    , 4.7314453125    , -15.140625    , 37.8515625    , -75.703125    , 123.017578125    , -164.0234375    , 180.42578125    , -164.0234375    , 123.017578125    , -75.703125    , 37.8515625    , -15.140625    , 4.7314453125    , -1.11328125    , 0.185546875    , -1.95312500e-2, 9.7656250000e-4 },
    { -9.7656250000e-4, 1.757812500e-2, -0.1484375    , 0.779296875    , -2.8388671875    , 7.5703125    , -15.140625    , 22.7109375    , -24.603515625    , 16.40234375    , 0.    , -16.40234375    , 24.603515625    , -22.7109375    , 15.140625    , -7.5703125    , 2.8388671875    , -0.779296875    , 0.1484375    , -1.757812500e-2, 9.7656250000e-4 },
    { 9.7656250000e-4, -1.562500e-2, 0.115234375    , -0.515625    , 1.5439453125    , -3.1875    , 4.3828125    , -3.1875    , -1.294921875    , 6.90625    , -9.49609375    , 6.90625    , -1.294921875    , -3.1875    , 4.3828125    , -3.1875    , 1.5439453125    , -0.515625    , 0.115234375    , -1.562500e-2, 9.7656250000e-4 },
    { -9.7656250000e-4, 1.367187500e-2, -8.5937500e-2, 0.314453125    , -0.7138671875    , 0.9296875    , -0.265625    , -1.4609375    , 3.021484375    , -2.58984375    , 0.    , 2.58984375    , -3.021484375    , 1.4609375    , 0.265625    , -0.9296875    , 0.7138671875    , -0.314453125    , 8.5937500e-2, -1.367187500e-2, 9.7656250000e-4 },
    { 9.7656250000e-4, -1.17187500e-2, 6.054687500e-2, -0.16796875    , 0.2314453125    , 1.562500e-2, -0.6484375    , 1.078125    , -0.482421875    , -0.9140625    , 1.67578125    , -0.9140625    , -0.482421875    , 1.078125    , -0.6484375    , 1.562500e-2, 0.2314453125    , -0.16796875    , 6.054687500e-2, -1.17187500e-2, 9.7656250000e-4 },
    { -9.7656250000e-4, 9.765625000e-3, -3.9062500e-2, 6.835937500e-2, 4.8828125000e-3, -0.2421875    , 0.390625    , -3.9062500e-2, -0.634765625    , 0.76171875    , 0.    , -0.76171875    , 0.634765625    , 3.9062500e-2, -0.390625    , 0.2421875    , -4.8828125000e-3, -6.835937500e-2, 3.9062500e-2, -9.765625000e-3, 9.7656250000e-4 },
    { 9.7656250000e-4, -7.8125000e-3, 2.148437500e-2, -7.8125000e-3, -8.1054687500e-2, 0.15625    , 7.8125000e-3, -0.34375    , 0.330078125    , 0.203125    , -0.55859375    , 0.203125    , 0.330078125    , -0.34375    , 7.8125000e-3, 0.15625    , -8.1054687500e-2, -7.8125000e-3, 2.148437500e-2, -7.8125000e-3, 9.7656250000e-4 },
    { -9.7656250000e-4, 5.859375000e-3, -7.8125000e-3, -2.148437500e-2, 6.7382812500e-2, -7.8125000e-3, -0.171875    , 0.1640625    , 0.177734375    , -0.35546875    , 0.    , 0.35546875    , -0.177734375    , -0.1640625    , 0.171875    , 7.8125000e-3, -6.7382812500e-2, 2.148437500e-2, 7.8125000e-3, -5.859375000e-3, 9.7656250000e-4 },
    { 9.7656250000e-4, -3.90625000e-3, -1.953125000e-3, 2.73437500e-2, -1.8554687500e-2, -7.812500e-2, 0.1015625    , 0.109375    , -0.232421875    , -5.4687500e-2, 0.30078125    , -5.4687500e-2, -0.232421875    , 0.109375    , 0.1015625    , -7.812500e-2, -1.8554687500e-2, 2.73437500e-2, -1.953125000e-3, -3.90625000e-3, 9.7656250000e-4 },
    { -9.7656250000e-4, 1.953125000e-3, 7.8125000e-3, -1.757812500e-2, -2.6367187500e-2, 7.0312500e-2, 4.687500e-2, -0.1640625    , -4.101562500e-2, 0.24609375    , 0.    , -0.24609375    , 4.101562500e-2, 0.1640625    , -4.687500e-2, -7.0312500e-2, 2.6367187500e-2, 1.757812500e-2, -7.8125000e-3, -1.953125000e-3, 9.7656250000e-4 },
    { 9.7656250000e-4, 0.    , -9.765625000e-3, 0.    , 4.3945312500e-2, 0.    , -0.1171875    , 0.    , 0.205078125    , 0.    , -0.24609375    , 0.    , 0.205078125    , 0.    , -0.1171875    , 0.    , 4.3945312500e-2, 0.    , -9.765625000e-3, 0.    , 9.7656250000e-4 },
    { -9.7656250000e-4, -1.953125000e-3, 7.8125000e-3, 1.757812500e-2, -2.6367187500e-2, -7.0312500e-2, 4.687500e-2, 0.1640625    , -4.101562500e-2, -0.24609375    , 0.    , 0.24609375    , 4.101562500e-2, -0.1640625    , -4.687500e-2, 7.0312500e-2, 2.6367187500e-2, -1.757812500e-2, -7.8125000e-3, 1.953125000e-3, 9.7656250000e-4 },
    { 9.7656250000e-4, 3.90625000e-3, -1.953125000e-3, -2.73437500e-2, -1.8554687500e-2, 7.812500e-2, 0.1015625    , -0.109375    , -0.232421875    , 5.4687500e-2, 0.30078125    , 5.4687500e-2, -0.232421875    , -0.109375    , 0.1015625    , 7.812500e-2, -1.8554687500e-2, -2.73437500e-2, -1.953125000e-3, 3.90625000e-3, 9.7656250000e-4 },
    { -9.7656250000e-4, -5.859375000e-3, -7.8125000e-3, 2.148437500e-2, 6.7382812500e-2, 7.8125000e-3, -0.171875    , -0.1640625    , 0.177734375    , 0.35546875    , 0.    , -0.35546875    , -0.177734375    , 0.1640625    , 0.171875    , -7.8125000e-3, -6.7382812500e-2, -2.148437500e-2, 7.8125000e-3, 5.859375000e-3, 9.7656250000e-4 },
    { 9.7656250000e-4, 7.8125000e-3, 2.148437500e-2, 7.8125000e-3, -8.1054687500e-2, -0.15625    , 7.8125000e-3, 0.34375    , 0.330078125    , -0.203125    , -0.55859375    , -0.203125    , 0.330078125    , 0.34375    , 7.8125000e-3, -0.15625    , -8.1054687500e-2, 7.8125000e-3, 2.148437500e-2, 7.8125000e-3, 9.7656250000e-4 },
    { -9.7656250000e-4, -9.765625000e-3, -3.9062500e-2, -6.835937500e-2, 4.8828125000e-3, 0.2421875    , 0.390625    , 3.9062500e-2, -0.634765625    , -0.76171875    , 0.    , 0.76171875    , 0.634765625    , -3.9062500e-2, -0.390625    , -0.2421875    , -4.8828125000e-3, 6.835937500e-2, 3.9062500e-2, 9.765625000e-3, 9.7656250000e-4 },
    { 9.7656250000e-4, 1.17187500e-2, 6.054687500e-2, 0.16796875    , 0.2314453125    , -1.562500e-2, -0.6484375    , -1.078125    , -0.482421875    , 0.9140625    , 1.67578125    , 0.9140625    , -0.482421875    , -1.078125    , -0.6484375    , -1.562500e-2, 0.2314453125    , 0.16796875    , 6.054687500e-2, 1.17187500e-2, 9.7656250000e-4 },
    { -9.7656250000e-4, -1.367187500e-2, -8.5937500e-2, -0.314453125    , -0.7138671875    , -0.9296875    , -0.265625    , 1.4609375    , 3.021484375    , 2.58984375    , 0.    , -2.58984375    , -3.021484375    , -1.4609375    , 0.265625    , 0.9296875    , 0.7138671875    , 0.314453125    , 8.5937500e-2, 1.367187500e-2, 9.7656250000e-4 },
    { 9.7656250000e-4, 1.562500e-2, 0.115234375    , 0.515625    , 1.5439453125    , 3.1875    , 4.3828125    , 3.1875    , -1.294921875    , -6.90625    , -9.49609375    , -6.90625    , -1.294921875    , 3.1875    , 4.3828125    , 3.1875    , 1.5439453125    , 0.515625    , 0.115234375    , 1.562500e-2, 9.7656250000e-4 },
    { -9.7656250000e-4, -1.757812500e-2, -0.1484375    , -0.779296875    , -2.8388671875    , -7.5703125    , -15.140625    , -22.7109375    , -24.603515625    , -16.40234375    , 0.    , 16.40234375    , 24.603515625    , 22.7109375    , 15.140625    , 7.5703125    , 2.8388671875    , 0.779296875    , 0.1484375    , 1.757812500e-2, 9.7656250000e-4 },
    { 9.7656250000e-4, 1.95312500e-2, 0.185546875    , 1.11328125    , 4.7314453125    , 15.140625    , 37.8515625    , 75.703125    , 123.017578125    , 164.0234375    , 180.42578125    , 164.0234375    , 123.017578125    , 75.703125    , 37.8515625    , 15.140625    , 4.7314453125    , 1.11328125    , 0.185546875    , 1.95312500e-2, 9.7656250000e-4 }
};

////////////////
// B11 matrix //
////////////////

iris_real b11[][23] = {
    { 4.88281250000e-4, -1.0742187500e-2, 0.11279296875    , -0.751953125    , 3.57177734375    , -12.8583984375    , 36.43212890625    , -83.2734375    , 156.1376953125    , -242.880859375    , 315.7451171875    , -344.44921875    , 315.7451171875    , -242.880859375    , 156.1376953125    , -83.2734375    , 36.43212890625    , -12.8583984375    , 3.57177734375    , -0.751953125    , 0.11279296875    , -1.0742187500e-2, 4.88281250000e-4 },
    { -4.88281250000e-4, 9.765625000e-3, -9.22851562500e-2, 0.546875    , -2.27294921875    , 7.013671875    , -16.56005859375    , 30.28125    , -42.5830078125    , 44.16015625    , -28.7041015625    , 0.    , 28.7041015625    , -44.16015625    , 42.5830078125    , -30.28125    , 16.56005859375    , -7.013671875    , 2.27294921875    , -0.546875    , 9.22851562500e-2, -9.765625000e-3, 4.88281250000e-4 },
    { 4.88281250000e-4, -8.7890625000e-3, 7.37304687500e-2, -0.380859375    , 1.34521484375    , -3.3955078125    , 6.15087890625    , -7.5703125    , 4.7314453125    , 3.154296875    , -12.3017578125    , 16.40234375    , -12.3017578125    , 3.154296875    , 4.7314453125    , -7.5703125    , 6.15087890625    , -3.3955078125    , 1.34521484375    , -0.380859375    , 7.37304687500e-2, -8.7890625000e-3, 4.88281250000e-4 },
    { -4.88281250000e-4, 7.8125000e-3, -5.71289062500e-2, 0.25    , -0.71435546875    , 1.3359375    , -1.41943359375    , 0.    , 2.8388671875    , -5.046875    , 4.1005859375    , 0.    , -4.1005859375    , 5.046875    , -2.8388671875    , 0.    , 1.41943359375    , -1.3359375    , 0.71435546875    , -0.25    , 5.71289062500e-2, -7.8125000e-3, 4.88281250000e-4 },
    { 4.88281250000e-4, -6.8359375000e-3, 4.24804687500e-2, -0.150390625    , 0.31396484375    , -0.3076171875    , -0.22412109375    , 1.1953125    , -1.6435546875    , 0.564453125    , 1.5107421875    , -2.58984375    , 1.5107421875    , 0.564453125    , -1.6435546875    , 1.1953125    , -0.22412109375    , -0.3076171875    , 0.31396484375    , -0.150390625    , 4.24804687500e-2, -6.8359375000e-3, 4.88281250000e-4 },
    { -4.88281250000e-4, 5.859375000e-3, -2.97851562500e-2, 7.812500e-2, -8.54492187500e-2, -9.179687500e-2, 0.43994140625    , -0.53125    , -8.3007812500e-2, 0.99609375    , -1.0791015625    , 0.    , 1.0791015625    , -0.99609375    , 8.3007812500e-2, 0.53125    , -0.43994140625    , 9.179687500e-2, 8.54492187500e-2, -7.812500e-2, 2.97851562500e-2, -5.859375000e-3, 4.88281250000e-4 },
    { 4.88281250000e-4, -4.8828125000e-3, 1.90429687500e-2, -2.929687500e-2, -2.19726562500e-2, 0.1552734375    , -0.19287109375    , -0.1015625    , 0.5126953125    , -0.400390625    , -0.3173828125    , 0.76171875    , -0.3173828125    , -0.400390625    , 0.5126953125    , -0.1015625    , -0.19287109375    , 0.1552734375    , -2.19726562500e-2, -2.929687500e-2, 1.90429687500e-2, -4.8828125000e-3, 4.88281250000e-4 },
    { -4.88281250000e-4, 3.90625000e-3, -1.02539062500e-2, 0.    , 5.12695312500e-2, -8.20312500e-2, -4.44335937500e-2, 0.25    , -0.1611328125    , -0.2734375    , 0.4443359375    , 0.    , -0.4443359375    , 0.2734375    , 0.1611328125    , -0.25    , 4.44335937500e-2, 8.20312500e-2, -5.12695312500e-2, 0.    , 1.02539062500e-2, -3.90625000e-3, 4.88281250000e-4 },
    { 4.88281250000e-4, -2.9296875000e-3, 3.41796875000e-3, 1.367187500e-2, -3.75976562500e-2, -6.8359375000e-3, 0.11962890625    , -8.5937500e-2, -0.1748046875    , 0.259765625    , 8.8867187500e-2, -0.35546875    , 8.8867187500e-2, 0.259765625    , -0.1748046875    , -8.5937500e-2, 0.11962890625    , -6.8359375000e-3, -3.75976562500e-2, 1.367187500e-2, 3.41796875000e-3, -2.9296875000e-3, 4.88281250000e-4 },
    { -4.88281250000e-4, 1.953125000e-3, 1.46484375000e-3, -1.562500e-2, 8.30078125000e-3, 5.273437500e-2, -6.00585937500e-2, -9.37500e-2, 0.1669921875    , 8.20312500e-2, -0.2666015625    , 0.    , 0.2666015625    , -8.20312500e-2, -0.1669921875    , 9.37500e-2, 6.00585937500e-2, -5.273437500e-2, -8.30078125000e-3, 1.562500e-2, -1.46484375000e-3, -1.953125000e-3, 4.88281250000e-4 },
    { 4.88281250000e-4, -9.7656250000e-4, -4.39453125000e-3, 9.765625000e-3, 1.70898437500e-2, -4.3945312500e-2, -3.66210937500e-2, 0.1171875    , 4.3945312500e-2, -0.205078125    , -2.0507812500e-2, 0.24609375    , -2.0507812500e-2, -0.205078125    , 4.3945312500e-2, 0.1171875    , -3.66210937500e-2, -4.3945312500e-2, 1.70898437500e-2, 9.765625000e-3, -4.39453125000e-3, -9.7656250000e-4, 4.88281250000e-4 },
    { -4.88281250000e-4, 0.    , 5.37109375000e-3, 0.    , -2.68554687500e-2, 0.    , 8.05664062500e-2, 0.    , -0.1611328125    , 0.    , 0.2255859375    , 0.    , -0.2255859375    , 0.    , 0.1611328125    , 0.    , -8.05664062500e-2, 0.    , 2.68554687500e-2, 0.    , -5.37109375000e-3, 0.    , 4.88281250000e-4 },
    { 4.88281250000e-4, 9.7656250000e-4, -4.39453125000e-3, -9.765625000e-3, 1.70898437500e-2, 4.3945312500e-2, -3.66210937500e-2, -0.1171875    , 4.3945312500e-2, 0.205078125    , -2.0507812500e-2, -0.24609375    , -2.0507812500e-2, 0.205078125    , 4.3945312500e-2, -0.1171875    , -3.66210937500e-2, 4.3945312500e-2, 1.70898437500e-2, -9.765625000e-3, -4.39453125000e-3, 9.7656250000e-4, 4.88281250000e-4 },
    { -4.88281250000e-4, -1.953125000e-3, 1.46484375000e-3, 1.562500e-2, 8.30078125000e-3, -5.273437500e-2, -6.00585937500e-2, 9.37500e-2, 0.1669921875    , -8.20312500e-2, -0.2666015625    , 0.    , 0.2666015625    , 8.20312500e-2, -0.1669921875    , -9.37500e-2, 6.00585937500e-2, 5.273437500e-2, -8.30078125000e-3, -1.562500e-2, -1.46484375000e-3, 1.953125000e-3, 4.88281250000e-4 },
    { 4.88281250000e-4, 2.9296875000e-3, 3.41796875000e-3, -1.367187500e-2, -3.75976562500e-2, 6.8359375000e-3, 0.11962890625    , 8.5937500e-2, -0.1748046875    , -0.259765625    , 8.8867187500e-2, 0.35546875    , 8.8867187500e-2, -0.259765625    , -0.1748046875    , 8.5937500e-2, 0.11962890625    , 6.8359375000e-3, -3.75976562500e-2, -1.367187500e-2, 3.41796875000e-3, 2.9296875000e-3, 4.88281250000e-4 },
    { -4.88281250000e-4, -3.90625000e-3, -1.02539062500e-2, 0.    , 5.12695312500e-2, 8.20312500e-2, -4.44335937500e-2, -0.25    , -0.1611328125    , 0.2734375    , 0.4443359375    , 0.    , -0.4443359375    , -0.2734375    , 0.1611328125    , 0.25    , 4.44335937500e-2, -8.20312500e-2, -5.12695312500e-2, 0.    , 1.02539062500e-2, 3.90625000e-3, 4.88281250000e-4 },
    { 4.88281250000e-4, 4.8828125000e-3, 1.90429687500e-2, 2.929687500e-2, -2.19726562500e-2, -0.1552734375    , -0.19287109375    , 0.1015625    , 0.5126953125    , 0.400390625    , -0.3173828125    , -0.76171875    , -0.3173828125    , 0.400390625    , 0.5126953125    , 0.1015625    , -0.19287109375    , -0.1552734375    , -2.19726562500e-2, 2.929687500e-2, 1.90429687500e-2, 4.8828125000e-3, 4.88281250000e-4 },
    { -4.88281250000e-4, -5.859375000e-3, -2.97851562500e-2, -7.812500e-2, -8.54492187500e-2, 9.179687500e-2, 0.43994140625    , 0.53125    , -8.3007812500e-2, -0.99609375    , -1.0791015625    , 0.    , 1.0791015625    , 0.99609375    , 8.3007812500e-2, -0.53125    , -0.43994140625    , -9.179687500e-2, 8.54492187500e-2, 7.812500e-2, 2.97851562500e-2, 5.859375000e-3, 4.88281250000e-4 },
    { 4.88281250000e-4, 6.8359375000e-3, 4.24804687500e-2, 0.150390625    , 0.31396484375    , 0.3076171875    , -0.22412109375    , -1.1953125    , -1.6435546875    , -0.564453125    , 1.5107421875    , 2.58984375    , 1.5107421875    , -0.564453125    , -1.6435546875    , -1.1953125    , -0.22412109375    , 0.3076171875    , 0.31396484375    , 0.150390625    , 4.24804687500e-2, 6.8359375000e-3, 4.88281250000e-4 },
    { -4.88281250000e-4, -7.8125000e-3, -5.71289062500e-2, -0.25    , -0.71435546875    , -1.3359375    , -1.41943359375    , 0.    , 2.8388671875    , 5.046875    , 4.1005859375    , 0.    , -4.1005859375    , -5.046875    , -2.8388671875    , 0.    , 1.41943359375    , 1.3359375    , 0.71435546875    , 0.25    , 5.71289062500e-2, 7.8125000e-3, 4.88281250000e-4 },
    { 4.88281250000e-4, 8.7890625000e-3, 7.37304687500e-2, 0.380859375    , 1.34521484375    , 3.3955078125    , 6.15087890625    , 7.5703125    , 4.7314453125    , -3.154296875    , -12.3017578125    , -16.40234375    , -12.3017578125    , -3.154296875    , 4.7314453125    , 7.5703125    , 6.15087890625    , 3.3955078125    , 1.34521484375    , 0.380859375    , 7.37304687500e-2, 8.7890625000e-3, 4.88281250000e-4 },
    { -4.88281250000e-4, -9.765625000e-3, -9.22851562500e-2, -0.546875    , -2.27294921875    , -7.013671875    , -16.56005859375    , -30.28125    , -42.5830078125    , -44.16015625    , -28.7041015625    , 0.    , 28.7041015625    , 44.16015625    , 42.5830078125    , 30.28125    , 16.56005859375    , 7.013671875    , 2.27294921875    , 0.546875    , 9.22851562500e-2, 9.765625000e-3, 4.88281250000e-4 },
    { 4.88281250000e-4, 1.0742187500e-2, 0.11279296875    , 0.751953125    , 3.57177734375    , 12.8583984375    , 36.43212890625    , 83.2734375    , 156.1376953125    , 242.880859375    , 315.7451171875    , 344.44921875    , 315.7451171875    , 242.880859375    , 156.1376953125    , 83.2734375    , 36.43212890625    , 12.8583984375    , 3.57177734375    , 0.751953125    , 0.11279296875    , 1.0742187500e-2, 4.88281250000e-4 }
};

////////////////
// B12 matrix //
////////////////

iris_real b12[][25] = {
    { 2.441406250000e-4, -5.859375000e-3, 6.7382812500e-2, -0.494140625    , 2.59423828125    , -10.376953125    , 32.8603515625    , -84.498046875    , 179.558349609375    , -319.21484375    , 478.822265625    , -609.41015625    , 660.1943359375    , -609.41015625    , 478.822265625    , -319.21484375    , 179.558349609375    , -84.498046875    , 32.8603515625    , -10.376953125    , 2.59423828125    , -0.494140625    , 6.7382812500e-2, -5.859375000e-3, 2.441406250000e-4 },
    { -2.441406250000e-4, 5.37109375000e-3, -5.61523437500e-2, 0.37060546875    , -1.7294921875    , 6.05322265625    , -16.43017578125    , 35.20751953125    , -59.852783203125    , 79.8037109375    , -79.8037109375    , 50.7841796875    , 0.    , -50.7841796875    , 79.8037109375    , -79.8037109375    , 59.852783203125    , -35.20751953125    , 16.43017578125    , -6.05322265625    , 1.7294921875    , -0.37060546875    , 5.61523437500e-2, -5.37109375000e-3, 2.441406250000e-4 },
    { 2.441406250000e-4, -4.8828125000e-3, 4.5898437500e-2, -0.2685546875    , 1.09033203125    , -3.2333984375    , 7.1435546875    , -11.6337890625    , 13.011474609375    , -6.939453125    , -6.939453125    , 22.080078125    , -28.7041015625    , 22.080078125    , -6.939453125    , -6.939453125    , 13.011474609375    , -11.6337890625    , 7.1435546875    , -3.2333984375    , 1.09033203125    , -0.2685546875    , 4.5898437500e-2, -4.8828125000e-3, 2.441406250000e-4 },
    { -2.441406250000e-4, 4.39453125000e-3, -3.66210937500e-2, 0.18603515625    , -0.6357421875    , 1.50732421875    , -2.40283203125    , 2.08740234375    , 0.709716796875    , -5.3623046875    , 8.5166015625    , -6.6240234375    , 0.    , 6.6240234375    , -8.5166015625    , 5.3623046875    , -0.709716796875    , -2.08740234375    , 2.40283203125    , -1.50732421875    , 0.6357421875    , -0.18603515625    , 3.66210937500e-2, -4.39453125000e-3, 2.441406250000e-4 },
    { 2.441406250000e-4, -3.90625000e-3, 2.8320312500e-2, -0.12109375    , 0.32861328125    , -0.54296875    , 0.3525390625    , 0.66796875    , -2.129150390625    , 2.5234375    , -0.630859375    , -2.5234375    , 4.1005859375    , -2.5234375    , -0.630859375    , 2.5234375    , -2.129150390625    , 0.66796875    , 0.3525390625    , -0.54296875    , 0.32861328125    , -0.12109375    , 2.8320312500e-2, -3.90625000e-3, 2.441406250000e-4 },
    { -2.441406250000e-4, 3.41796875000e-3, -2.09960937500e-2, 7.17773437500e-2, -0.1357421875    , 7.86132812500e-2, 0.26904296875    , -0.75146484375    , 0.709716796875    , 0.3154296875    , -1.5771484375    , 1.5771484375    , 0.    , -1.5771484375    , 1.5771484375    , -0.3154296875    , -0.709716796875    , 0.75146484375    , -0.26904296875    , -7.86132812500e-2, 0.1357421875    , -7.17773437500e-2, 2.09960937500e-2, -3.41796875000e-3, 2.441406250000e-4 },
    { 2.441406250000e-4, -2.9296875000e-3, 1.4648437500e-2, -3.6132812500e-2, 2.78320312500e-2, 8.4960937500e-2, -0.2626953125    , 0.2197265625    , 0.261474609375    , -0.763671875    , 0.498046875    , 0.498046875    , -1.0791015625    , 0.498046875    , 0.498046875    , -0.763671875    , 0.261474609375    , 0.2197265625    , -0.2626953125    , 8.4960937500e-2, 2.78320312500e-2, -3.6132812500e-2, 1.4648437500e-2, -2.9296875000e-3, 2.441406250000e-4 },
    { -2.441406250000e-4, 2.44140625000e-3, -9.27734375000e-3, 1.22070312500e-2, 2.0507812500e-2, -9.22851562500e-2, 8.54492187500e-2, 0.12841796875    , -0.352783203125    , 0.1494140625    , 0.4150390625    , -0.5810546875    , 0.    , 0.5810546875    , -0.4150390625    , -0.1494140625    , 0.352783203125    , -0.12841796875    , -8.54492187500e-2, 9.22851562500e-2, -2.0507812500e-2, -1.22070312500e-2, 9.27734375000e-3, -2.44140625000e-3, 2.441406250000e-4 },
    { 2.441406250000e-4, -1.953125000e-3, 4.8828125000e-3, 1.953125000e-3, -3.07617187500e-2, 4.101562500e-2, 4.7851562500e-2, -0.166015625    , 5.834960937500e-2, 0.26171875    , -0.302734375    , -0.13671875    , 0.4443359375    , -0.13671875    , -0.302734375    , 0.26171875    , 5.834960937500e-2, -0.166015625    , 4.7851562500e-2, 4.101562500e-2, -3.07617187500e-2, 1.953125000e-3, 4.8828125000e-3, -1.953125000e-3, 2.441406250000e-4 },
    { -2.441406250000e-4, 1.46484375000e-3, -1.46484375000e-3, -8.30078125000e-3, 2.0507812500e-2, 1.02539062500e-2, -7.86132812500e-2, 3.95507812500e-2, 0.147216796875    , -0.1728515625    , -0.1318359375    , 0.3076171875    , 0.    , -0.3076171875    , 0.1318359375    , 0.1728515625    , -0.147216796875    , -3.95507812500e-2, 7.86132812500e-2, -1.02539062500e-2, -2.0507812500e-2, 8.30078125000e-3, 1.46484375000e-3, -1.46484375000e-3, 2.441406250000e-4 },
    { 2.441406250000e-4, -9.7656250000e-4, -9.7656250000e-4, 8.7890625000e-3, -3.41796875000e-3, -3.4179687500e-2, 3.4179687500e-2, 7.3242187500e-2, -0.113525390625    , -8.789062500e-2, 0.216796875    , 4.101562500e-2, -0.2666015625    , 4.101562500e-2, 0.216796875    , -8.789062500e-2, -0.113525390625    , 7.3242187500e-2, 3.4179687500e-2, -3.4179687500e-2, -3.41796875000e-3, 8.7890625000e-3, -9.7656250000e-4, -9.7656250000e-4, 2.441406250000e-4 },
    { -2.441406250000e-4, 4.88281250000e-4, 2.44140625000e-3, -5.37109375000e-3, -1.0742187500e-2, 2.68554687500e-2, 2.68554687500e-2, -8.05664062500e-2, -4.028320312500e-2, 0.1611328125    , 3.2226562500e-2, -0.2255859375    , 0.    , 0.2255859375    , -3.2226562500e-2, -0.1611328125    , 4.028320312500e-2, 8.05664062500e-2, -2.68554687500e-2, -2.68554687500e-2, 1.0742187500e-2, 5.37109375000e-3, -2.44140625000e-3, -4.88281250000e-4, 2.441406250000e-4 },
    { 2.441406250000e-4, 0.    , -2.9296875000e-3, 0.    , 1.61132812500e-2, 0.    , -5.3710937500e-2, 0.    , 0.120849609375    , 0.    , -0.193359375    , 0.    , 0.2255859375    , 0.    , -0.193359375    , 0.    , 0.120849609375    , 0.    , -5.3710937500e-2, 0.    , 1.61132812500e-2, 0.    , -2.9296875000e-3, 0.    , 2.441406250000e-4 },
    { -2.441406250000e-4, -4.88281250000e-4, 2.44140625000e-3, 5.37109375000e-3, -1.0742187500e-2, -2.68554687500e-2, 2.68554687500e-2, 8.05664062500e-2, -4.028320312500e-2, -0.1611328125    , 3.2226562500e-2, 0.2255859375    , 0.    , -0.2255859375    , -3.2226562500e-2, 0.1611328125    , 4.028320312500e-2, -8.05664062500e-2, -2.68554687500e-2, 2.68554687500e-2, 1.0742187500e-2, -5.37109375000e-3, -2.44140625000e-3, 4.88281250000e-4, 2.441406250000e-4 },
    { 2.441406250000e-4, 9.7656250000e-4, -9.7656250000e-4, -8.7890625000e-3, -3.41796875000e-3, 3.4179687500e-2, 3.4179687500e-2, -7.3242187500e-2, -0.113525390625    , 8.789062500e-2, 0.216796875    , -4.101562500e-2, -0.2666015625    , -4.101562500e-2, 0.216796875    , 8.789062500e-2, -0.113525390625    , -7.3242187500e-2, 3.4179687500e-2, 3.4179687500e-2, -3.41796875000e-3, -8.7890625000e-3, -9.7656250000e-4, 9.7656250000e-4, 2.441406250000e-4 },
    { -2.441406250000e-4, -1.46484375000e-3, -1.46484375000e-3, 8.30078125000e-3, 2.0507812500e-2, -1.02539062500e-2, -7.86132812500e-2, -3.95507812500e-2, 0.147216796875    , 0.1728515625    , -0.1318359375    , -0.3076171875    , 0.    , 0.3076171875    , 0.1318359375    , -0.1728515625    , -0.147216796875    , 3.95507812500e-2, 7.86132812500e-2, 1.02539062500e-2, -2.0507812500e-2, -8.30078125000e-3, 1.46484375000e-3, 1.46484375000e-3, 2.441406250000e-4 },
    { 2.441406250000e-4, 1.953125000e-3, 4.8828125000e-3, -1.953125000e-3, -3.07617187500e-2, -4.101562500e-2, 4.7851562500e-2, 0.166015625    , 5.834960937500e-2, -0.26171875    , -0.302734375    , 0.13671875    , 0.4443359375    , 0.13671875    , -0.302734375    , -0.26171875    , 5.834960937500e-2, 0.166015625    , 4.7851562500e-2, -4.101562500e-2, -3.07617187500e-2, -1.953125000e-3, 4.8828125000e-3, 1.953125000e-3, 2.441406250000e-4 },
    { -2.441406250000e-4, -2.44140625000e-3, -9.27734375000e-3, -1.22070312500e-2, 2.0507812500e-2, 9.22851562500e-2, 8.54492187500e-2, -0.12841796875    , -0.352783203125    , -0.1494140625    , 0.4150390625    , 0.5810546875    , 0.    , -0.5810546875    , -0.4150390625    , 0.1494140625    , 0.352783203125    , 0.12841796875    , -8.54492187500e-2, -9.22851562500e-2, -2.0507812500e-2, 1.22070312500e-2, 9.27734375000e-3, 2.44140625000e-3, 2.441406250000e-4 },
    { 2.441406250000e-4, 2.9296875000e-3, 1.4648437500e-2, 3.6132812500e-2, 2.78320312500e-2, -8.4960937500e-2, -0.2626953125    , -0.2197265625    , 0.261474609375    , 0.763671875    , 0.498046875    , -0.498046875    , -1.0791015625    , -0.498046875    , 0.498046875    , 0.763671875    , 0.261474609375    , -0.2197265625    , -0.2626953125    , -8.4960937500e-2, 2.78320312500e-2, 3.6132812500e-2, 1.4648437500e-2, 2.9296875000e-3, 2.441406250000e-4 },
    { -2.441406250000e-4, -3.41796875000e-3, -2.09960937500e-2, -7.17773437500e-2, -0.1357421875    , -7.86132812500e-2, 0.26904296875    , 0.75146484375    , 0.709716796875    , -0.3154296875    , -1.5771484375    , -1.5771484375    , 0.    , 1.5771484375    , 1.5771484375    , 0.3154296875    , -0.709716796875    , -0.75146484375    , -0.26904296875    , 7.86132812500e-2, 0.1357421875    , 7.17773437500e-2, 2.09960937500e-2, 3.41796875000e-3, 2.441406250000e-4 },
    { 2.441406250000e-4, 3.90625000e-3, 2.8320312500e-2, 0.12109375    , 0.32861328125    , 0.54296875    , 0.3525390625    , -0.66796875    , -2.129150390625    , -2.5234375    , -0.630859375    , 2.5234375    , 4.1005859375    , 2.5234375    , -0.630859375    , -2.5234375    , -2.129150390625    , -0.66796875    , 0.3525390625    , 0.54296875    , 0.32861328125    , 0.12109375    , 2.8320312500e-2, 3.90625000e-3, 2.441406250000e-4 },
    { -2.441406250000e-4, -4.39453125000e-3, -3.66210937500e-2, -0.18603515625    , -0.6357421875    , -1.50732421875    , -2.40283203125    , -2.08740234375    , 0.709716796875    , 5.3623046875    , 8.5166015625    , 6.6240234375    , 0.    , -6.6240234375    , -8.5166015625    , -5.3623046875    , -0.709716796875    , 2.08740234375    , 2.40283203125    , 1.50732421875    , 0.6357421875    , 0.18603515625    , 3.66210937500e-2, 4.39453125000e-3, 2.441406250000e-4 },
    { 2.441406250000e-4, 4.8828125000e-3, 4.5898437500e-2, 0.2685546875    , 1.09033203125    , 3.2333984375    , 7.1435546875    , 11.6337890625    , 13.011474609375    , 6.939453125    , -6.939453125    , -22.080078125    , -28.7041015625    , -22.080078125    , -6.939453125    , 6.939453125    , 13.011474609375    , 11.6337890625    , 7.1435546875    , 3.2333984375    , 1.09033203125    , 0.2685546875    , 4.5898437500e-2, 4.8828125000e-3, 2.441406250000e-4 },
    { -2.441406250000e-4, -5.37109375000e-3, -5.61523437500e-2, -0.37060546875    , -1.7294921875    , -6.05322265625    , -16.43017578125    , -35.20751953125    , -59.852783203125    , -79.8037109375    , -79.8037109375    , -50.7841796875    , 0.    , 50.7841796875    , 79.8037109375    , 79.8037109375    , 59.852783203125    , 35.20751953125    , 16.43017578125    , 6.05322265625    , 1.7294921875    , 0.37060546875    , 5.61523437500e-2, 5.37109375000e-3, 2.441406250000e-4 },
    { 2.441406250000e-4, 5.859375000e-3, 6.7382812500e-2, 0.494140625    , 2.59423828125    , 10.376953125    , 32.8603515625    , 84.498046875    , 179.558349609375    , 319.21484375    , 478.822265625    , 609.41015625    , 660.1943359375    , 609.41015625    , 478.822265625    , 319.21484375    , 179.558349609375    , 84.498046875    , 32.8603515625    , 10.376953125    , 2.59423828125    , 0.494140625    , 6.7382812500e-2, 5.859375000e-3, 2.441406250000e-4 }
};

////////////////
// B13 matrix //
////////////////

iris_real b13[][27] = {
    { 1.2207031250000e-4, -3.173828125000e-3, 3.9672851562500e-2, -0.3173828125    , 1.824951171875    , -8.02978515625    , 28.104248046875    , -80.2978515625    , 190.7073974609375    , -381.414794921875    , 648.4051513671875    , -943.134765625    , 1178.91845703125    , -1269.6044921875    , 1178.91845703125    , -943.134765625    , 648.4051513671875    , -381.414794921875    , 190.7073974609375    , -80.2978515625    , 28.104248046875    , -8.02978515625    , 1.824951171875    , -0.3173828125    , 3.9672851562500e-2, -3.173828125000e-3, 1.2207031250000e-4 },
    { -1.2207031250000e-4, 2.9296875000e-3, -3.3569335937500e-2, 0.244140625    , -1.263427734375    , 4.94140625    , -15.133056640625    , 37.060546875    , -73.3489990234375    , 117.3583984375    , -149.6319580078125    , 145.09765625    , -90.68603515625    , 0.    , 90.68603515625    , -145.09765625    , 149.6319580078125    , -117.3583984375    , 73.3489990234375    , -37.060546875    , 15.133056640625    , -4.94140625    , 1.263427734375    , -0.244140625    , 3.3569335937500e-2, -2.9296875000e-3, 1.2207031250000e-4 },
    { 1.2207031250000e-4, -2.685546875000e-3, 2.7954101562500e-2, -0.1826171875    , 0.836669921875    , -2.84130859375    , 7.350341796875    , -14.5771484375    , 21.7113037109375    , -22.298095703125    , 9.9754638671875    , 14.509765625    , -39.90185546875    , 50.7841796875    , -39.90185546875    , 14.509765625    , 9.9754638671875    , -22.298095703125    , 21.7113037109375    , -14.5771484375    , 7.350341796875    , -2.84130859375    , 0.836669921875    , -0.1826171875    , 2.7954101562500e-2, -2.685546875000e-3, 1.2207031250000e-4 },
    { -1.2207031250000e-4, 2.44140625000e-3, -2.2827148437500e-2, 0.1318359375    , -0.522216796875    , 1.482421875    , -3.026611328125    , 4.2001953125    , -2.9339599609375    , -2.34716796875    , 9.9754638671875    , -14.509765625    , 10.88232421875    , 0.    , -10.88232421875    , 14.509765625    , -9.9754638671875    , 2.34716796875    , 2.9339599609375    , -4.2001953125    , 3.026611328125    , -1.482421875    , 0.522216796875    , -0.1318359375    , 2.2827148437500e-2, -2.44140625000e-3, 1.2207031250000e-4 },
    { 1.2207031250000e-4, -2.197265625000e-3, 1.8188476562500e-2, -9.0820312500e-2, 0.299560546875    , -0.66064453125    , 0.883544921875    , -0.2900390625    , -1.5562744140625    , 3.724853515625    , -3.9034423828125    , 0.630859375    , 4.25830078125    , -6.6240234375    , 4.25830078125    , 0.630859375    , -3.9034423828125    , 3.724853515625    , -1.5562744140625    , -0.2900390625    , 0.883544921875    , -0.66064453125    , 0.299560546875    , -9.0820312500e-2, 1.8188476562500e-2, -2.197265625000e-3, 1.2207031250000e-4 },
    { -1.2207031250000e-4, 1.953125000e-3, -1.4038085937500e-2, 5.85937500e-2, -0.150146484375    , 0.2109375    , -1.196289062500e-2, -0.60546875    , 1.2408447265625    , -0.927734375    , -0.7491455078125    , 2.5234375    , -2.36572265625    , 0.    , 2.36572265625    , -2.5234375    , 0.7491455078125    , 0.927734375    , -1.2408447265625    , 0.60546875    , 1.196289062500e-2, -0.2109375    , 0.150146484375    , -5.85937500e-2, 1.4038085937500e-2, -1.953125000e-3, 1.2207031250000e-4 },
    { 1.2207031250000e-4, -1.708984375000e-3, 1.0375976562500e-2, -3.4179687500e-2, 5.737304687500e-2, -3.41796875000e-3, -0.202392578125    , 0.4150390625    , -0.2203369140625    , -0.533447265625    , 1.1434326171875    , -0.630859375    , -0.78857421875    , 1.5771484375    , -0.78857421875    , -0.630859375    , 1.1434326171875    , -0.533447265625    , -0.2203369140625    , 0.4150390625    , -0.202392578125    , -3.41796875000e-3, 5.737304687500e-2, -3.4179687500e-2, 1.0375976562500e-2, -1.708984375000e-3, 1.2207031250000e-4 },
    { -1.2207031250000e-4, 1.46484375000e-3, -7.2021484375000e-3, 1.6601562500e-2, -6.591796875000e-3, -6.054687500e-2, 0.145263671875    , -6.7382812500e-2, -0.2620849609375    , 0.49169921875    , -0.1182861328125    , -0.630859375    , 0.78857421875    , 0.    , -0.78857421875    , 0.630859375    , 0.1182861328125    , -0.49169921875    , 0.2620849609375    , 6.7382812500e-2, -0.145263671875    , 6.054687500e-2, 6.591796875000e-3, -1.6601562500e-2, 7.2021484375000e-3, -1.46484375000e-3, 1.2207031250000e-4 },
    { 1.2207031250000e-4, -1.220703125000e-3, 4.5166015625000e-3, -4.8828125000e-3, -1.489257812500e-2, 5.22460937500e-2, -3.247070312500e-2, -0.1103515625    , 0.2191162109375    , -1.049804687500e-2, -0.3839111328125    , 0.365234375    , 0.20751953125    , -0.5810546875    , 0.20751953125    , 0.365234375    , -0.3839111328125    , -1.049804687500e-2, 0.2191162109375    , -0.1103515625    , -3.247070312500e-2, 5.22460937500e-2, -1.489257812500e-2, -4.8828125000e-3, 4.5166015625000e-3, -1.220703125000e-3, 1.2207031250000e-4 },
    { -1.2207031250000e-4, 9.7656250000e-4, -2.3193359375000e-3, -1.953125000e-3, 1.782226562500e-2, -1.95312500e-2, -3.930664062500e-2, 0.103515625    , -5.2490234375000e-3, -0.2138671875    , 0.1805419921875    , 0.19921875    , -0.37353515625    , 0.    , 0.37353515625    , -0.19921875    , -0.1805419921875    , 0.2138671875    , 5.2490234375000e-3, -0.103515625    , 3.930664062500e-2, 1.95312500e-2, -1.782226562500e-2, 1.953125000e-3, 2.3193359375000e-3, -9.7656250000e-4, 1.2207031250000e-4 },
    { 1.2207031250000e-4, -7.324218750000e-4, 6.1035156250000e-4, 4.8828125000e-3, -1.098632812500e-2, -9.27734375000e-3, 4.956054687500e-2, -1.4648437500e-2, -0.1129150390625    , 0.106201171875    , 0.1395263671875    , -0.240234375    , -6.59179687500e-2, 0.3076171875    , -6.59179687500e-2, -0.240234375    , 0.1395263671875    , 0.106201171875    , -0.1129150390625    , -1.4648437500e-2, 4.956054687500e-2, -9.27734375000e-3, -1.098632812500e-2, 4.8828125000e-3, 6.1035156250000e-4, -7.324218750000e-4, 1.2207031250000e-4 },
    { -1.2207031250000e-4, 4.88281250000e-4, 6.1035156250000e-4, -4.8828125000e-3, 1.220703125000e-3, 2.148437500e-2, -1.879882812500e-2, -5.3710937500e-2, 7.3852539062500e-2, 8.05664062500e-2, -0.1651611328125    , -6.445312500e-2, 0.24169921875    , 0.    , -0.24169921875    , 6.445312500e-2, 0.1651611328125    , -8.05664062500e-2, -7.3852539062500e-2, 5.3710937500e-2, 1.879882812500e-2, -2.148437500e-2, -1.220703125000e-3, 4.8828125000e-3, -6.1035156250000e-4, -4.88281250000e-4, 1.2207031250000e-4 },
    { 1.2207031250000e-4, -2.441406250000e-4, -1.3427734375000e-3, 2.9296875000e-3, 6.591796875000e-3, -1.61132812500e-2, -1.879882812500e-2, 5.3710937500e-2, 3.3569335937500e-2, -0.120849609375    , -3.6254882812500e-2, 0.193359375    , 1.61132812500e-2, -0.2255859375    , 1.61132812500e-2, 0.193359375    , -3.6254882812500e-2, -0.120849609375    , 3.3569335937500e-2, 5.3710937500e-2, -1.879882812500e-2, -1.61132812500e-2, 6.591796875000e-3, 2.9296875000e-3, -1.3427734375000e-3, -2.441406250000e-4, 1.2207031250000e-4 },
    { -1.2207031250000e-4, 0.    , 1.5869140625000e-3, 0.    , -9.521484375000e-3, 0.    , 3.491210937500e-2, 0.    , -8.7280273437500e-2, 0.    , 0.1571044921875    , 0.    , -0.20947265625    , 0.    , 0.20947265625    , 0.    , -0.1571044921875    , 0.    , 8.7280273437500e-2, 0.    , -3.491210937500e-2, 0.    , 9.521484375000e-3, 0.    , -1.5869140625000e-3, 0.    , 1.2207031250000e-4 },
    { 1.2207031250000e-4, 2.441406250000e-4, -1.3427734375000e-3, -2.9296875000e-3, 6.591796875000e-3, 1.61132812500e-2, -1.879882812500e-2, -5.3710937500e-2, 3.3569335937500e-2, 0.120849609375    , -3.6254882812500e-2, -0.193359375    , 1.61132812500e-2, 0.2255859375    , 1.61132812500e-2, -0.193359375    , -3.6254882812500e-2, 0.120849609375    , 3.3569335937500e-2, -5.3710937500e-2, -1.879882812500e-2, 1.61132812500e-2, 6.591796875000e-3, -2.9296875000e-3, -1.3427734375000e-3, 2.441406250000e-4, 1.2207031250000e-4 },
    { -1.2207031250000e-4, -4.88281250000e-4, 6.1035156250000e-4, 4.8828125000e-3, 1.220703125000e-3, -2.148437500e-2, -1.879882812500e-2, 5.3710937500e-2, 7.3852539062500e-2, -8.05664062500e-2, -0.1651611328125    , 6.445312500e-2, 0.24169921875    , 0.    , -0.24169921875    , -6.445312500e-2, 0.1651611328125    , 8.05664062500e-2, -7.3852539062500e-2, -5.3710937500e-2, 1.879882812500e-2, 2.148437500e-2, -1.220703125000e-3, -4.8828125000e-3, -6.1035156250000e-4, 4.88281250000e-4, 1.2207031250000e-4 },
    { 1.2207031250000e-4, 7.324218750000e-4, 6.1035156250000e-4, -4.8828125000e-3, -1.098632812500e-2, 9.27734375000e-3, 4.956054687500e-2, 1.4648437500e-2, -0.1129150390625    , -0.106201171875    , 0.1395263671875    , 0.240234375    , -6.59179687500e-2, -0.3076171875    , -6.59179687500e-2, 0.240234375    , 0.1395263671875    , -0.106201171875    , -0.1129150390625    , 1.4648437500e-2, 4.956054687500e-2, 9.27734375000e-3, -1.098632812500e-2, -4.8828125000e-3, 6.1035156250000e-4, 7.324218750000e-4, 1.2207031250000e-4 },
    { -1.2207031250000e-4, -9.7656250000e-4, -2.3193359375000e-3, 1.953125000e-3, 1.782226562500e-2, 1.95312500e-2, -3.930664062500e-2, -0.103515625    , -5.2490234375000e-3, 0.2138671875    , 0.1805419921875    , -0.19921875    , -0.37353515625    , 0.    , 0.37353515625    , 0.19921875    , -0.1805419921875    , -0.2138671875    , 5.2490234375000e-3, 0.103515625    , 3.930664062500e-2, -1.95312500e-2, -1.782226562500e-2, -1.953125000e-3, 2.3193359375000e-3, 9.7656250000e-4, 1.2207031250000e-4 },
    { 1.2207031250000e-4, 1.220703125000e-3, 4.5166015625000e-3, 4.8828125000e-3, -1.489257812500e-2, -5.22460937500e-2, -3.247070312500e-2, 0.1103515625    , 0.2191162109375    , 1.049804687500e-2, -0.3839111328125    , -0.365234375    , 0.20751953125    , 0.5810546875    , 0.20751953125    , -0.365234375    , -0.3839111328125    , 1.049804687500e-2, 0.2191162109375    , 0.1103515625    , -3.247070312500e-2, -5.22460937500e-2, -1.489257812500e-2, 4.8828125000e-3, 4.5166015625000e-3, 1.220703125000e-3, 1.2207031250000e-4 },
    { -1.2207031250000e-4, -1.46484375000e-3, -7.2021484375000e-3, -1.6601562500e-2, -6.591796875000e-3, 6.054687500e-2, 0.145263671875    , 6.7382812500e-2, -0.2620849609375    , -0.49169921875    , -0.1182861328125    , 0.630859375    , 0.78857421875    , 0.    , -0.78857421875    , -0.630859375    , 0.1182861328125    , 0.49169921875    , 0.2620849609375    , -6.7382812500e-2, -0.145263671875    , -6.054687500e-2, 6.591796875000e-3, 1.6601562500e-2, 7.2021484375000e-3, 1.46484375000e-3, 1.2207031250000e-4 },
    { 1.2207031250000e-4, 1.708984375000e-3, 1.0375976562500e-2, 3.4179687500e-2, 5.737304687500e-2, 3.41796875000e-3, -0.202392578125    , -0.4150390625    , -0.2203369140625    , 0.533447265625    , 1.1434326171875    , 0.630859375    , -0.78857421875    , -1.5771484375    , -0.78857421875    , 0.630859375    , 1.1434326171875    , 0.533447265625    , -0.2203369140625    , -0.4150390625    , -0.202392578125    , 3.41796875000e-3, 5.737304687500e-2, 3.4179687500e-2, 1.0375976562500e-2, 1.708984375000e-3, 1.2207031250000e-4 },
    { -1.2207031250000e-4, -1.953125000e-3, -1.4038085937500e-2, -5.85937500e-2, -0.150146484375    , -0.2109375    , -1.196289062500e-2, 0.60546875    , 1.2408447265625    , 0.927734375    , -0.7491455078125    , -2.5234375    , -2.36572265625    , 0.    , 2.36572265625    , 2.5234375    , 0.7491455078125    , -0.927734375    , -1.2408447265625    , -0.60546875    , 1.196289062500e-2, 0.2109375    , 0.150146484375    , 5.85937500e-2, 1.4038085937500e-2, 1.953125000e-3, 1.2207031250000e-4 },
    { 1.2207031250000e-4, 2.197265625000e-3, 1.8188476562500e-2, 9.0820312500e-2, 0.299560546875    , 0.66064453125    , 0.883544921875    , 0.2900390625    , -1.5562744140625    , -3.724853515625    , -3.9034423828125    , -0.630859375    , 4.25830078125    , 6.6240234375    , 4.25830078125    , -0.630859375    , -3.9034423828125    , -3.724853515625    , -1.5562744140625    , 0.2900390625    , 0.883544921875    , 0.66064453125    , 0.299560546875    , 9.0820312500e-2, 1.8188476562500e-2, 2.197265625000e-3, 1.2207031250000e-4 },
    { -1.2207031250000e-4, -2.44140625000e-3, -2.2827148437500e-2, -0.1318359375    , -0.522216796875    , -1.482421875    , -3.026611328125    , -4.2001953125    , -2.9339599609375    , 2.34716796875    , 9.9754638671875    , 14.509765625    , 10.88232421875    , 0.    , -10.88232421875    , -14.509765625    , -9.9754638671875    , -2.34716796875    , 2.9339599609375    , 4.2001953125    , 3.026611328125    , 1.482421875    , 0.522216796875    , 0.1318359375    , 2.2827148437500e-2, 2.44140625000e-3, 1.2207031250000e-4 },
    { 1.2207031250000e-4, 2.685546875000e-3, 2.7954101562500e-2, 0.1826171875    , 0.836669921875    , 2.84130859375    , 7.350341796875    , 14.5771484375    , 21.7113037109375    , 22.298095703125    , 9.9754638671875    , -14.509765625    , -39.90185546875    , -50.7841796875    , -39.90185546875    , -14.509765625    , 9.9754638671875    , 22.298095703125    , 21.7113037109375    , 14.5771484375    , 7.350341796875    , 2.84130859375    , 0.836669921875    , 0.1826171875    , 2.7954101562500e-2, 2.685546875000e-3, 1.2207031250000e-4 },
    { -1.2207031250000e-4, -2.9296875000e-3, -3.3569335937500e-2, -0.244140625    , -1.263427734375    , -4.94140625    , -15.133056640625    , -37.060546875    , -73.3489990234375    , -117.3583984375    , -149.6319580078125    , -145.09765625    , -90.68603515625    , 0.    , 90.68603515625    , 145.09765625    , 149.6319580078125    , 117.3583984375    , 73.3489990234375    , 37.060546875    , 15.133056640625    , 4.94140625    , 1.263427734375    , 0.244140625    , 3.3569335937500e-2, 2.9296875000e-3, 1.2207031250000e-4 },
    { 1.2207031250000e-4, 3.173828125000e-3, 3.9672851562500e-2, 0.3173828125    , 1.824951171875    , 8.02978515625    , 28.104248046875    , 80.2978515625    , 190.7073974609375    , 381.414794921875    , 648.4051513671875    , 943.134765625    , 1178.91845703125    , 1269.6044921875    , 1178.91845703125    , 943.134765625    , 648.4051513671875    , 381.414794921875    , 190.7073974609375    , 80.2978515625    , 28.104248046875    , 8.02978515625    , 1.824951171875    , 0.3173828125    , 3.9672851562500e-2, 3.173828125000e-3, 1.2207031250000e-4 }
};

////////////////
// B14 matrix //
////////////////

iris_real b14[][29] = {
    { 6.10351562500000e-5, -1.708984375000e-3, 2.3071289062500e-2, -0.199951171875    , 1.24969482421875    , -5.99853515625    , 22.994384765625    , -72.26806640625    , 189.70367431640625    , -421.563720703125    , 800.9710693359375    , -1310.679931640625    , 1856.7965698242188    , -2285.2880859375    , 2448.52294921875    , -2285.2880859375    , 1856.7965698242188    , -1310.679931640625    , 800.9710693359375    , -421.563720703125    , 189.70367431640625    , -72.26806640625    , 22.994384765625    , -5.99853515625    , 1.24969482421875    , -0.199951171875    , 2.3071289062500e-2, -1.708984375000e-3, 6.10351562500000e-5 },
    { -6.10351562500000e-5, 1.5869140625000e-3, -1.977539062500e-2, 0.1571044921875    , -0.89263916015625    , 3.856201171875    , -13.1396484375    , 36.134033203125    , -81.30157470703125    , 150.5584716796875    , -228.848876953125    , 280.8599853515625    , -265.25665283203125    , 163.23486328125    , 0.    , -163.23486328125    , 265.25665283203125    , -280.8599853515625    , 228.848876953125    , -150.5584716796875    , 81.30157470703125    , -36.134033203125    , 13.1396484375    , -3.856201171875    , 0.89263916015625    , -0.1571044921875    , 1.977539062500e-2, -1.5869140625000e-3, 6.10351562500000e-5 },
    { 6.10351562500000e-5, -1.46484375000e-3, 1.6723632812500e-2, -0.12060546875    , 0.61492919921875    , -2.3486328125    , 6.934814453125    , -16.0595703125    , 29.10797119140625    , -40.14892578125    , 38.1414794921875    , -13.86962890625    , -29.47296142578125    , 72.548828125    , -90.68603515625    , 72.548828125    , -29.47296142578125    , -13.86962890625    , 38.1414794921875    , -40.14892578125    , 29.10797119140625    , -16.0595703125    , 6.934814453125    , -2.3486328125    , 0.61492919921875    , -0.12060546875    , 1.6723632812500e-2, -1.46484375000e-3, 6.10351562500000e-5 },
    { -6.10351562500000e-5, 1.3427734375000e-3, -1.391601562500e-2, 8.9965820312500e-2, -0.40435791015625    , 1.329345703125    , -3.2568359375    , 5.867919921875    , -7.18048095703125    , 3.8604736328125    , 5.867919921875    , -18.4039306640625    , 24.93865966796875    , -18.13720703125    , 0.    , 18.13720703125    , -24.93865966796875    , 18.4039306640625    , -5.867919921875    , -3.8604736328125    , 7.18048095703125    , -5.867919921875    , 3.2568359375    , -1.329345703125    , 0.40435791015625    , -8.9965820312500e-2, 1.391601562500e-2, -1.3427734375000e-3, 6.10351562500000e-5 },
    { 6.10351562500000e-5, -1.220703125000e-3, 1.1352539062500e-2, -6.469726562500e-2, 0.24969482421875    , -0.67529296875    , 1.252197265625    , -1.35888671875    , -4.63256835937500e-2, 3.273681640625    , -6.4547119140625    , 6.081298828125    , -0.45343017578125    , -7.2548828125    , 10.88232421875    , -7.2548828125    , -0.45343017578125    , 6.081298828125    , -6.4547119140625    , 3.273681640625    , -4.63256835937500e-2, -1.35888671875    , 1.252197265625    , -0.67529296875    , 0.24969482421875    , -6.469726562500e-2, 1.1352539062500e-2, -1.220703125000e-3, 6.10351562500000e-5 },
    { -6.10351562500000e-5, 1.0986328125000e-3, -9.033203125000e-3, 4.4311523437500e-2, -0.14068603515625    , 0.284912109375    , -0.2919921875    , -0.185302734375    , 1.21990966796875    , -2.0074462890625    , 1.173583984375    , 1.5469970703125    , -4.08087158203125    , 3.62744140625    , 0.    , -3.62744140625    , 4.08087158203125    , -1.5469970703125    , -1.173583984375    , 2.0074462890625    , -1.21990966796875    , 0.185302734375    , 0.2919921875    , -0.284912109375    , 0.14068603515625    , -4.4311523437500e-2, 9.033203125000e-3, -1.0986328125000e-3, 6.10351562500000e-5 },
    { 6.10351562500000e-5, -9.7656250000e-4, 6.9580078125000e-3, -2.8320312500e-2, 6.80541992187500e-2, -7.617187500e-2, -6.909179687500e-2, 0.408203125    , -0.62640380859375    , 0.1611328125    , 0.9949951171875    , -1.7255859375    , 0.80828857421875    , 1.26171875    , -2.36572265625    , 1.26171875    , 0.80828857421875    , -1.7255859375    , 0.9949951171875    , 0.1611328125    , -0.62640380859375    , 0.408203125    , -6.909179687500e-2, -7.617187500e-2, 6.80541992187500e-2, -2.8320312500e-2, 6.9580078125000e-3, -9.7656250000e-4, 6.10351562500000e-5 },
    { -6.10351562500000e-5, 8.5449218750000e-4, -5.126953125000e-3, 1.6235351562500e-2, -2.34985351562500e-2, -1.538085937500e-2, 0.1298828125    , -0.209228515625    , 8.97216796875000e-3, 0.4742431640625    , -0.681884765625    , 4.8706054687500e-2, 0.96600341796875    , -1.10400390625    , 0.    , 1.10400390625    , -0.96600341796875    , -4.8706054687500e-2, 0.681884765625    , -0.4742431640625    , -8.97216796875000e-3, 0.209228515625    , -0.1298828125    , 1.538085937500e-2, 2.34985351562500e-2, -1.6235351562500e-2, 5.126953125000e-3, -8.5449218750000e-4, 6.10351562500000e-5 },
    { 6.10351562500000e-5, -7.324218750000e-4, 3.5400390625000e-3, -7.568359375000e-3, -3.05175781250000e-4, 3.85742187500e-2, -7.592773437500e-2, 3.41796875000e-3, 0.20367431640625    , -0.279541015625    , -7.1899414062500e-2, 0.561279296875    , -0.45343017578125    , -0.3154296875    , 0.78857421875    , -0.3154296875    , -0.45343017578125    , 0.561279296875    , -7.1899414062500e-2, -0.279541015625    , 0.20367431640625    , 3.41796875000e-3, -7.592773437500e-2, 3.85742187500e-2, -3.05175781250000e-4, -7.568359375000e-3, 3.5400390625000e-3, -7.324218750000e-4, 6.10351562500000e-5 },
    { -6.10351562500000e-5, 6.1035156250000e-4, -2.197265625000e-3, 1.8310546875000e-3, 9.70458984375000e-3, -2.856445312500e-2, 8.7890625000e-3, 8.129882812500e-2, -0.12579345703125    , -4.9926757812500e-2, 0.301513671875    , -0.1878662109375    , -0.29571533203125    , 0.47314453125    , 0.    , -0.47314453125    , 0.29571533203125    , 0.1878662109375    , -0.301513671875    , 4.9926757812500e-2, 0.12579345703125    , -8.129882812500e-2, -8.7890625000e-3, 2.856445312500e-2, -9.70458984375000e-3, -1.8310546875000e-3, 2.197265625000e-3, -6.1035156250000e-4, 6.10351562500000e-5 },
    { 6.10351562500000e-5, -4.88281250000e-4, 1.0986328125000e-3, 1.46484375000e-3, -1.00708007812500e-2, 8.7890625000e-3, 2.856445312500e-2, -6.1523437500e-2, -1.70288085937500e-2, 0.15869140625    , -9.2895507812500e-2, -0.20654296875    , 0.27703857421875    , 9.960937500e-2, -0.37353515625    , 9.960937500e-2, 0.27703857421875    , -0.20654296875    , -9.2895507812500e-2, 0.15869140625    , -1.70288085937500e-2, -6.1523437500e-2, 2.856445312500e-2, 8.7890625000e-3, -1.00708007812500e-2, 1.46484375000e-3, 1.0986328125000e-3, -4.88281250000e-4, 6.10351562500000e-5 },
    { -6.10351562500000e-5, 3.6621093750000e-4, -2.441406250000e-4, -2.8076171875000e-3, 5.79833984375000e-3, 7.080078125000e-3, -3.0273437500e-2, 2.685546875000e-3, 8.12377929687500e-2, -6.0424804687500e-2, -0.126220703125    , 0.1732177734375    , 0.10272216796875    , -0.27392578125    , 0.    , 0.27392578125    , -0.10272216796875    , -0.1732177734375    , 0.126220703125    , 6.0424804687500e-2, -8.12377929687500e-2, -2.685546875000e-3, 3.0273437500e-2, -7.080078125000e-3, -5.79833984375000e-3, 2.8076171875000e-3, 2.441406250000e-4, -3.6621093750000e-4, 6.10351562500000e-5 },
    { 6.10351562500000e-5, -2.441406250000e-4, -3.6621093750000e-4, 2.685546875000e-3, -3.05175781250000e-4, -1.31835937500e-2, 1.000976562500e-2, 3.75976562500e-2, -4.63256835937500e-2, -6.713867187500e-2, 0.1195068359375    , 7.250976562500e-2, -0.20343017578125    , -3.2226562500e-2, 0.24169921875    , -3.2226562500e-2, -0.20343017578125    , 7.250976562500e-2, 0.1195068359375    , -6.713867187500e-2, -4.63256835937500e-2, 3.75976562500e-2, 1.000976562500e-2, -1.31835937500e-2, -3.05175781250000e-4, 2.685546875000e-3, -3.6621093750000e-4, -2.441406250000e-4, 6.10351562500000e-5 },
    { -6.10351562500000e-5, 1.2207031250000e-4, 7.324218750000e-4, -1.5869140625000e-3, -3.96728515625000e-3, 9.521484375000e-3, 1.2695312500e-2, -3.491210937500e-2, -2.61840820312500e-2, 8.7280273437500e-2, 3.491210937500e-2, -0.1571044921875    , -2.61840820312500e-2, 0.20947265625    , 0.    , -0.20947265625    , 2.61840820312500e-2, 0.1571044921875    , -3.491210937500e-2, -8.7280273437500e-2, 2.61840820312500e-2, 3.491210937500e-2, -1.2695312500e-2, -9.521484375000e-3, 3.96728515625000e-3, 1.5869140625000e-3, -7.324218750000e-4, -1.2207031250000e-4, 6.10351562500000e-5 },
    { 6.10351562500000e-5, 0.    , -8.5449218750000e-4, 0.    , 5.55419921875000e-3, 0.    , -2.221679687500e-2, 0.    , 6.10961914062500e-2, 0.    , -0.1221923828125    , 0.    , 0.18328857421875    , 0.    , -0.20947265625    , 0.    , 0.18328857421875    , 0.    , -0.1221923828125    , 0.    , 6.10961914062500e-2, 0.    , -2.221679687500e-2, 0.    , 5.55419921875000e-3, 0.    , -8.5449218750000e-4, 0.    , 6.10351562500000e-5 },
    { -6.10351562500000e-5, -1.2207031250000e-4, 7.324218750000e-4, 1.5869140625000e-3, -3.96728515625000e-3, -9.521484375000e-3, 1.2695312500e-2, 3.491210937500e-2, -2.61840820312500e-2, -8.7280273437500e-2, 3.491210937500e-2, 0.1571044921875    , -2.61840820312500e-2, -0.20947265625    , 0.    , 0.20947265625    , 2.61840820312500e-2, -0.1571044921875    , -3.491210937500e-2, 8.7280273437500e-2, 2.61840820312500e-2, -3.491210937500e-2, -1.2695312500e-2, 9.521484375000e-3, 3.96728515625000e-3, -1.5869140625000e-3, -7.324218750000e-4, 1.2207031250000e-4, 6.10351562500000e-5 },
    { 6.10351562500000e-5, 2.441406250000e-4, -3.6621093750000e-4, -2.685546875000e-3, -3.05175781250000e-4, 1.31835937500e-2, 1.000976562500e-2, -3.75976562500e-2, -4.63256835937500e-2, 6.713867187500e-2, 0.1195068359375    , -7.250976562500e-2, -0.20343017578125    , 3.2226562500e-2, 0.24169921875    , 3.2226562500e-2, -0.20343017578125    , -7.250976562500e-2, 0.1195068359375    , 6.713867187500e-2, -4.63256835937500e-2, -3.75976562500e-2, 1.000976562500e-2, 1.31835937500e-2, -3.05175781250000e-4, -2.685546875000e-3, -3.6621093750000e-4, 2.441406250000e-4, 6.10351562500000e-5 },
    { -6.10351562500000e-5, -3.6621093750000e-4, -2.441406250000e-4, 2.8076171875000e-3, 5.79833984375000e-3, -7.080078125000e-3, -3.0273437500e-2, -2.685546875000e-3, 8.12377929687500e-2, 6.0424804687500e-2, -0.126220703125    , -0.1732177734375    , 0.10272216796875    , 0.27392578125    , 0.    , -0.27392578125    , -0.10272216796875    , 0.1732177734375    , 0.126220703125    , -6.0424804687500e-2, -8.12377929687500e-2, 2.685546875000e-3, 3.0273437500e-2, 7.080078125000e-3, -5.79833984375000e-3, -2.8076171875000e-3, 2.441406250000e-4, 3.6621093750000e-4, 6.10351562500000e-5 },
    { 6.10351562500000e-5, 4.88281250000e-4, 1.0986328125000e-3, -1.46484375000e-3, -1.00708007812500e-2, -8.7890625000e-3, 2.856445312500e-2, 6.1523437500e-2, -1.70288085937500e-2, -0.15869140625    , -9.2895507812500e-2, 0.20654296875    , 0.27703857421875    , -9.960937500e-2, -0.37353515625    , -9.960937500e-2, 0.27703857421875    , 0.20654296875    , -9.2895507812500e-2, -0.15869140625    , -1.70288085937500e-2, 6.1523437500e-2, 2.856445312500e-2, -8.7890625000e-3, -1.00708007812500e-2, -1.46484375000e-3, 1.0986328125000e-3, 4.88281250000e-4, 6.10351562500000e-5 },
    { -6.10351562500000e-5, -6.1035156250000e-4, -2.197265625000e-3, -1.8310546875000e-3, 9.70458984375000e-3, 2.856445312500e-2, 8.7890625000e-3, -8.129882812500e-2, -0.12579345703125    , 4.9926757812500e-2, 0.301513671875    , 0.1878662109375    , -0.29571533203125    , -0.47314453125    , 0.    , 0.47314453125    , 0.29571533203125    , -0.1878662109375    , -0.301513671875    , -4.9926757812500e-2, 0.12579345703125    , 8.129882812500e-2, -8.7890625000e-3, -2.856445312500e-2, -9.70458984375000e-3, 1.8310546875000e-3, 2.197265625000e-3, 6.1035156250000e-4, 6.10351562500000e-5 },
    { 6.10351562500000e-5, 7.324218750000e-4, 3.5400390625000e-3, 7.568359375000e-3, -3.05175781250000e-4, -3.85742187500e-2, -7.592773437500e-2, -3.41796875000e-3, 0.20367431640625    , 0.279541015625    , -7.1899414062500e-2, -0.561279296875    , -0.45343017578125    , 0.3154296875    , 0.78857421875    , 0.3154296875    , -0.45343017578125    , -0.561279296875    , -7.1899414062500e-2, 0.279541015625    , 0.20367431640625    , -3.41796875000e-3, -7.592773437500e-2, -3.85742187500e-2, -3.05175781250000e-4, 7.568359375000e-3, 3.5400390625000e-3, 7.324218750000e-4, 6.10351562500000e-5 },
    { -6.10351562500000e-5, -8.5449218750000e-4, -5.126953125000e-3, -1.6235351562500e-2, -2.34985351562500e-2, 1.538085937500e-2, 0.1298828125    , 0.209228515625    , 8.97216796875000e-3, -0.4742431640625    , -0.681884765625    , -4.8706054687500e-2, 0.96600341796875    , 1.10400390625    , 0.    , -1.10400390625    , -0.96600341796875    , 4.8706054687500e-2, 0.681884765625    , 0.4742431640625    , -8.97216796875000e-3, -0.209228515625    , -0.1298828125    , -1.538085937500e-2, 2.34985351562500e-2, 1.6235351562500e-2, 5.126953125000e-3, 8.5449218750000e-4, 6.10351562500000e-5 },
    { 6.10351562500000e-5, 9.7656250000e-4, 6.9580078125000e-3, 2.8320312500e-2, 6.80541992187500e-2, 7.617187500e-2, -6.909179687500e-2, -0.408203125    , -0.62640380859375    , -0.1611328125    , 0.9949951171875    , 1.7255859375    , 0.80828857421875    , -1.26171875    , -2.36572265625    , -1.26171875    , 0.80828857421875    , 1.7255859375    , 0.9949951171875    , -0.1611328125    , -0.62640380859375    , -0.408203125    , -6.909179687500e-2, 7.617187500e-2, 6.80541992187500e-2, 2.8320312500e-2, 6.9580078125000e-3, 9.7656250000e-4, 6.10351562500000e-5 },
    { -6.10351562500000e-5, -1.0986328125000e-3, -9.033203125000e-3, -4.4311523437500e-2, -0.14068603515625    , -0.284912109375    , -0.2919921875    , 0.185302734375    , 1.21990966796875    , 2.0074462890625    , 1.173583984375    , -1.5469970703125    , -4.08087158203125    , -3.62744140625    , 0.    , 3.62744140625    , 4.08087158203125    , 1.5469970703125    , -1.173583984375    , -2.0074462890625    , -1.21990966796875    , -0.185302734375    , 0.2919921875    , 0.284912109375    , 0.14068603515625    , 4.4311523437500e-2, 9.033203125000e-3, 1.0986328125000e-3, 6.10351562500000e-5 },
    { 6.10351562500000e-5, 1.220703125000e-3, 1.1352539062500e-2, 6.469726562500e-2, 0.24969482421875    , 0.67529296875    , 1.252197265625    , 1.35888671875    , -4.63256835937500e-2, -3.273681640625    , -6.4547119140625    , -6.081298828125    , -0.45343017578125    , 7.2548828125    , 10.88232421875    , 7.2548828125    , -0.45343017578125    , -6.081298828125    , -6.4547119140625    , -3.273681640625    , -4.63256835937500e-2, 1.35888671875    , 1.252197265625    , 0.67529296875    , 0.24969482421875    , 6.469726562500e-2, 1.1352539062500e-2, 1.220703125000e-3, 6.10351562500000e-5 },
    { -6.10351562500000e-5, -1.3427734375000e-3, -1.391601562500e-2, -8.9965820312500e-2, -0.40435791015625    , -1.329345703125    , -3.2568359375    , -5.867919921875    , -7.18048095703125    , -3.8604736328125    , 5.867919921875    , 18.4039306640625    , 24.93865966796875    , 18.13720703125    , 0.    , -18.13720703125    , -24.93865966796875    , -18.4039306640625    , -5.867919921875    , 3.8604736328125    , 7.18048095703125    , 5.867919921875    , 3.2568359375    , 1.329345703125    , 0.40435791015625    , 8.9965820312500e-2, 1.391601562500e-2, 1.3427734375000e-3, 6.10351562500000e-5 },
    { 6.10351562500000e-5, 1.46484375000e-3, 1.6723632812500e-2, 0.12060546875    , 0.61492919921875    , 2.3486328125    , 6.934814453125    , 16.0595703125    , 29.10797119140625    , 40.14892578125    , 38.1414794921875    , 13.86962890625    , -29.47296142578125    , -72.548828125    , -90.68603515625    , -72.548828125    , -29.47296142578125    , 13.86962890625    , 38.1414794921875    , 40.14892578125    , 29.10797119140625    , 16.0595703125    , 6.934814453125    , 2.3486328125    , 0.61492919921875    , 0.12060546875    , 1.6723632812500e-2, 1.46484375000e-3, 6.10351562500000e-5 },
    { -6.10351562500000e-5, -1.5869140625000e-3, -1.977539062500e-2, -0.1571044921875    , -0.89263916015625    , -3.856201171875    , -13.1396484375    , -36.134033203125    , -81.30157470703125    , -150.5584716796875    , -228.848876953125    , -280.8599853515625    , -265.25665283203125    , -163.23486328125    , 0.    , 163.23486328125    , 265.25665283203125    , 280.8599853515625    , 228.848876953125    , 150.5584716796875    , 81.30157470703125    , 36.134033203125    , 13.1396484375    , 3.856201171875    , 0.89263916015625    , 0.1571044921875    , 1.977539062500e-2, 1.5869140625000e-3, 6.10351562500000e-5 },
    { 6.10351562500000e-5, 1.708984375000e-3, 2.3071289062500e-2, 0.199951171875    , 1.24969482421875    , 5.99853515625    , 22.994384765625    , 72.26806640625    , 189.70367431640625    , 421.563720703125    , 800.9710693359375    , 1310.679931640625    , 1856.7965698242188    , 2285.2880859375    , 2448.52294921875    , 2285.2880859375    , 1856.7965698242188    , 1310.679931640625    , 800.9710693359375    , 421.563720703125    , 189.70367431640625    , 72.26806640625    , 22.994384765625    , 5.99853515625    , 1.24969482421875    , 0.199951171875    , 2.3071289062500e-2, 1.708984375000e-3, 6.10351562500000e-5 }
};

////////////////
// B15 matrix //
////////////////

iris_real b15[][31] = {
    { 3.051757812500000e-5, -9.15527343750000e-4, 1.327514648437500e-2, -0.1239013671875    , 0.836334228515625    , -4.34893798828125    , 18.120574951171875    , -62.127685546875    , 178.61709594726563    , -436.61956787109375    , 916.9010925292969    , -1667.0928955078125    , 2639.563751220703    , -3654.7805786132813    , 4437.947845458984    , -4733.81103515625    , 4437.947845458984    , -3654.7805786132813    , 2639.563751220703    , -1667.0928955078125    , 916.9010925292969    , -436.61956787109375    , 178.61709594726563    , -62.127685546875    , 18.120574951171875    , -4.34893798828125    , 0.836334228515625    , -0.1239013671875    , 1.327514648437500e-2, -9.15527343750000e-4, 3.051757812500000e-5 },
    { -3.051757812500000e-5, 8.5449218750000e-4, -1.150512695312500e-2, 9.91210937500e-2, -0.613311767578125    , 2.8992919921875    , -10.872344970703125    , 33.134765625    , -83.35464477539063    , 174.6478271484375    , -305.6336975097656    , 444.55810546875    , -527.9127502441406    , 487.3040771484375    , -295.8631896972656    , 0.    , 295.8631896972656    , -487.3040771484375    , 527.9127502441406    , -444.55810546875    , 305.6336975097656    , -174.6478271484375    , 83.35464477539063    , -33.134765625    , 10.872344970703125    , -2.8992919921875    , 0.613311767578125    , -9.91210937500e-2, 1.150512695312500e-2, -8.5449218750000e-4, 3.051757812500000e-5 },
    { 3.051757812500000e-5, -7.93457031250000e-4, 9.857177734375000e-3, -7.7758789062500e-2, 0.436431884765625    , -1.84954833984375    , 6.123504638671875    , -16.138916015625    , 34.080963134765625    , -57.21221923828125    , 73.77365112304688    , -65.1507568359375    , 18.203887939453125    , 58.81256103515625    , -132.62832641601563    , 163.23486328125    , -132.62832641601563    , 58.81256103515625    , 18.203887939453125    , -65.1507568359375    , 73.77365112304688    , -57.21221923828125    , 34.080963134765625    , -16.138916015625    , 6.123504638671875    , -1.84954833984375    , 0.436431884765625    , -7.7758789062500e-2, 9.857177734375000e-3, -7.93457031250000e-4, 3.051757812500000e-5 },
    { -3.051757812500000e-5, 7.324218750000e-4, -8.331298828125000e-3, 5.9570312500e-2, -0.299102783203125    , 1.114013671875    , -3.159942626953125    , 6.85546875    , -11.086578369140625    , 12.044677734375    , -4.516754150390625    , -13.1396484375    , 33.807220458984375    , -43.209228515625    , 30.606536865234375    , 0.    , -30.606536865234375    , 43.209228515625    , -33.807220458984375    , 13.1396484375    , 4.516754150390625    , -12.044677734375    , 11.086578369140625    , -6.85546875    , 3.159942626953125    , -1.114013671875    , 0.299102783203125    , -5.9570312500e-2, 8.331298828125000e-3, -7.324218750000e-4, 3.051757812500000e-5 },
    { 3.051757812500000e-5, -6.71386718750000e-4, 6.927490234375000e-3, -4.4311523437500e-2, 0.195220947265625    , -0.61968994140625    , 1.426239013671875    , -2.269287109375    , 1.961822509765625    , 1.00372314453125    , -6.524200439453125    , 11.1322021484375    , -9.535369873046875    , -0.13336181640625    , 12.469329833984375    , -18.13720703125    , 12.469329833984375    , -0.13336181640625    , -9.535369873046875    , 11.1322021484375    , -6.524200439453125    , 1.00372314453125    , 1.961822509765625    , -2.269287109375    , 1.426239013671875    , -0.61968994140625    , 0.195220947265625    , -4.4311523437500e-2, 6.927490234375000e-3, -6.71386718750000e-4, 3.051757812500000e-5 },
    { -3.051757812500000e-5, 6.1035156250000e-4, -5.645751953125000e-3, 3.17382812500e-2, -0.119171142578125    , 0.3052978515625    , -0.501251220703125    , 0.341796875    , 0.649261474609375    , -2.3162841796875    , 3.204193115234375    , -1.40380859375    , -3.000640869140625    , 6.6680908203125    , -5.667877197265625    , 0.    , 5.667877197265625    , -6.6680908203125    , 3.000640869140625    , 1.40380859375    , -3.204193115234375    , 2.3162841796875    , -0.649261474609375    , -0.341796875    , 0.501251220703125    , -0.3052978515625    , 0.119171142578125    , -3.17382812500e-2, 5.645751953125000e-3, -6.1035156250000e-4, 3.051757812500000e-5 },
    { 3.051757812500000e-5, -5.49316406250000e-4, 4.486083984375000e-3, -2.1606445312500e-2, 6.582641601562500e-2, -0.12030029296875    , 7.565307617187500e-2, 0.235107421875    , -0.755950927734375    , 0.91107177734375    , 2.316284179687500e-2, -1.7772216796875    , 2.627227783203125    , -1.04022216796875    , -2.040435791015625    , 3.62744140625    , -2.040435791015625    , -1.04022216796875    , 2.627227783203125    , -1.7772216796875    , 2.316284179687500e-2, 0.91107177734375    , -0.755950927734375    , 0.235107421875    , 7.565307617187500e-2, -0.12030029296875    , 6.582641601562500e-2, -2.1606445312500e-2, 4.486083984375000e-3, -5.49316406250000e-4, 3.051757812500000e-5 },
    { -3.051757812500000e-5, 4.88281250000e-4, -3.448486328125000e-3, 1.367187500e-2, -3.054809570312500e-2, 2.39257812500e-2, 6.857299804687500e-2, -0.2421875    , 0.278656005859375    , 0.12353515625    , -0.810699462890625    , 0.943359375    , 9.335327148437500e-2, -1.49365234375    , 1.587005615234375    , 0.    , -1.587005615234375    , 1.49365234375    , -9.335327148437500e-2, -0.943359375    , 0.810699462890625    , -0.12353515625    , -0.278656005859375    , 0.2421875    , -6.857299804687500e-2, -2.39257812500e-2, 3.054809570312500e-2, -1.367187500e-2, 3.448486328125000e-3, -4.88281250000e-4, 3.051757812500000e-5 },
    { 3.051757812500000e-5, -4.27246093750000e-4, 2.532958984375000e-3, -7.6904296875000e-3, 9.185791015625000e-3, 1.58081054687500e-2, -7.669067382812500e-2, 9.692382812500e-2, 6.045532226562500e-2, -0.34173583984375    , 0.345428466796875    , 0.2127685546875    , -0.823944091796875    , 0.57635498046875    , 0.483001708984375    , -1.10400390625    , 0.483001708984375    , 0.57635498046875    , -0.823944091796875    , 0.2127685546875    , 0.345428466796875    , -0.34173583984375    , 6.045532226562500e-2, 9.692382812500e-2, -7.669067382812500e-2, 1.58081054687500e-2, 9.185791015625000e-3, -7.6904296875000e-3, 2.532958984375000e-3, -4.27246093750000e-4, 3.051757812500000e-5 },
    { -3.051757812500000e-5, 3.6621093750000e-4, -1.739501953125000e-3, 3.41796875000e-3, 1.922607421875000e-3, -2.3071289062500e-2, 3.781127929687500e-2, 1.757812500e-2, -0.139801025390625    , 0.1414794921875    , 0.137786865234375    , -0.42041015625    , 0.190765380859375    , 0.4383544921875    , -0.621002197265625    , 0.    , 0.621002197265625    , -0.4383544921875    , -0.190765380859375    , 0.42041015625    , -0.137786865234375    , -0.1414794921875    , 0.139801025390625    , -1.757812500e-2, -3.781127929687500e-2, 2.3071289062500e-2, -1.922607421875000e-3, -3.41796875000e-3, 1.739501953125000e-3, -3.6621093750000e-4, 3.051757812500000e-5 },
    { 3.051757812500000e-5, -3.05175781250000e-4, 1.068115234375000e-3, -6.1035156250000e-4, -5.950927734375000e-3, 1.51977539062500e-2, 4.577636718750000e-4, -5.493164062500e-2, 6.729125976562500e-2, 6.56127929687500e-2, -0.213653564453125    , 6.8969726562500e-2, 0.298614501953125    , -0.33050537109375    , -0.147857666015625    , 0.47314453125    , -0.147857666015625    , -0.33050537109375    , 0.298614501953125    , 6.8969726562500e-2, -0.213653564453125    , 6.56127929687500e-2, 6.729125976562500e-2, -5.493164062500e-2, 4.577636718750000e-4, 1.51977539062500e-2, -5.950927734375000e-3, -6.1035156250000e-4, 1.068115234375000e-3, -3.05175781250000e-4, 3.051757812500000e-5 },
    { -3.051757812500000e-5, 2.441406250000e-4, -5.187988281250000e-4, -9.7656250000e-4, 5.584716796875000e-3, -3.662109375000e-3, -1.931762695312500e-2, 3.51562500e-2, 2.279663085937500e-2, -0.110107421875    , 3.793334960937500e-2, 0.1826171875    , -0.184967041015625    , -0.153076171875    , 0.325286865234375    , 0.    , -0.325286865234375    , 0.153076171875    , 0.184967041015625    , -0.1826171875    , -3.793334960937500e-2, 0.110107421875    , -2.279663085937500e-2, -3.51562500e-2, 1.931762695312500e-2, 3.662109375000e-3, -5.584716796875000e-3, 9.7656250000e-4, 5.187988281250000e-4, -2.441406250000e-4, 3.051757812500000e-5 },
    { 3.051757812500000e-5, -1.83105468750000e-4, 9.155273437500000e-5, 1.5869140625000e-3, -3.021240234375000e-3, -4.94384765625000e-3, 1.803588867187500e-2, 2.197265625000e-3, -5.575561523437500e-2, 3.15551757812500e-2, 0.103729248046875    , -0.1168212890625    , -0.114471435546875    , 0.22357177734375    , 5.136108398437500e-2, -0.27392578125    , 5.136108398437500e-2, 0.22357177734375    , -0.114471435546875    , -0.1168212890625    , 0.103729248046875    , 3.15551757812500e-2, -5.575561523437500e-2, 2.197265625000e-3, 1.803588867187500e-2, -4.94384765625000e-3, -3.021240234375000e-3, 1.5869140625000e-3, 9.155273437500000e-5, -1.83105468750000e-4, 3.051757812500000e-5 },
    { -3.051757812500000e-5, 1.2207031250000e-4, 2.136230468750000e-4, -1.46484375000e-3, -3.051757812500000e-5, 7.9345703125000e-3, -5.157470703125000e-3, -2.539062500e-2, 2.816772460937500e-2, 5.2368164062500e-2, -8.291625976562500e-2, -6.98242187500e-2, 0.161468505859375    , 5.2368164062500e-2, -0.222564697265625    , 0.    , 0.222564697265625    , -5.2368164062500e-2, -0.161468505859375    , 6.98242187500e-2, 8.291625976562500e-2, -5.2368164062500e-2, -2.816772460937500e-2, 2.539062500e-2, 5.157470703125000e-3, -7.9345703125000e-3, 3.051757812500000e-5, 1.46484375000e-3, -2.136230468750000e-4, -1.2207031250000e-4, 3.051757812500000e-5 },
    { 3.051757812500000e-5, -6.10351562500000e-5, -3.967285156250000e-4, 8.5449218750000e-4, 2.349853515625000e-3, -5.55419921875000e-3, -8.331298828125000e-3, 2.221679687500e-2, 1.943969726562500e-2, -6.10961914062500e-2, -3.054809570312500e-2, 0.1221923828125    , 3.054809570312500e-2, -0.18328857421875    , -1.309204101562500e-2, 0.20947265625    , -1.309204101562500e-2, -0.18328857421875    , 3.054809570312500e-2, 0.1221923828125    , -3.054809570312500e-2, -6.10961914062500e-2, 1.943969726562500e-2, 2.221679687500e-2, -8.331298828125000e-3, -5.55419921875000e-3, 2.349853515625000e-3, 8.5449218750000e-4, -3.967285156250000e-4, -6.10351562500000e-5, 3.051757812500000e-5 },
    { -3.051757812500000e-5, 0.    , 4.577636718750000e-4, 0.    , -3.204345703125000e-3, 0.    , 1.388549804687500e-2, 0.    , -4.165649414062500e-2, 0.    , 9.164428710937500e-2, 0.    , -0.152740478515625    , 0.    , 0.196380615234375    , 0.    , -0.196380615234375    , 0.    , 0.152740478515625    , 0.    , -9.164428710937500e-2, 0.    , 4.165649414062500e-2, 0.    , -1.388549804687500e-2, 0.    , 3.204345703125000e-3, 0.    , -4.577636718750000e-4, 0.    , 3.051757812500000e-5 },
    { 3.051757812500000e-5, 6.10351562500000e-5, -3.967285156250000e-4, -8.5449218750000e-4, 2.349853515625000e-3, 5.55419921875000e-3, -8.331298828125000e-3, -2.221679687500e-2, 1.943969726562500e-2, 6.10961914062500e-2, -3.054809570312500e-2, -0.1221923828125    , 3.054809570312500e-2, 0.18328857421875    , -1.309204101562500e-2, -0.20947265625    , -1.309204101562500e-2, 0.18328857421875    , 3.054809570312500e-2, -0.1221923828125    , -3.054809570312500e-2, 6.10961914062500e-2, 1.943969726562500e-2, -2.221679687500e-2, -8.331298828125000e-3, 5.55419921875000e-3, 2.349853515625000e-3, -8.5449218750000e-4, -3.967285156250000e-4, 6.10351562500000e-5, 3.051757812500000e-5 },
    { -3.051757812500000e-5, -1.2207031250000e-4, 2.136230468750000e-4, 1.46484375000e-3, -3.051757812500000e-5, -7.9345703125000e-3, -5.157470703125000e-3, 2.539062500e-2, 2.816772460937500e-2, -5.2368164062500e-2, -8.291625976562500e-2, 6.98242187500e-2, 0.161468505859375    , -5.2368164062500e-2, -0.222564697265625    , 0.    , 0.222564697265625    , 5.2368164062500e-2, -0.161468505859375    , -6.98242187500e-2, 8.291625976562500e-2, 5.2368164062500e-2, -2.816772460937500e-2, -2.539062500e-2, 5.157470703125000e-3, 7.9345703125000e-3, 3.051757812500000e-5, -1.46484375000e-3, -2.136230468750000e-4, 1.2207031250000e-4, 3.051757812500000e-5 },
    { 3.051757812500000e-5, 1.83105468750000e-4, 9.155273437500000e-5, -1.5869140625000e-3, -3.021240234375000e-3, 4.94384765625000e-3, 1.803588867187500e-2, -2.197265625000e-3, -5.575561523437500e-2, -3.15551757812500e-2, 0.103729248046875    , 0.1168212890625    , -0.114471435546875    , -0.22357177734375    , 5.136108398437500e-2, 0.27392578125    , 5.136108398437500e-2, -0.22357177734375    , -0.114471435546875    , 0.1168212890625    , 0.103729248046875    , -3.15551757812500e-2, -5.575561523437500e-2, -2.197265625000e-3, 1.803588867187500e-2, 4.94384765625000e-3, -3.021240234375000e-3, -1.5869140625000e-3, 9.155273437500000e-5, 1.83105468750000e-4, 3.051757812500000e-5 },
    { -3.051757812500000e-5, -2.441406250000e-4, -5.187988281250000e-4, 9.7656250000e-4, 5.584716796875000e-3, 3.662109375000e-3, -1.931762695312500e-2, -3.51562500e-2, 2.279663085937500e-2, 0.110107421875    , 3.793334960937500e-2, -0.1826171875    , -0.184967041015625    , 0.153076171875    , 0.325286865234375    , 0.    , -0.325286865234375    , -0.153076171875    , 0.184967041015625    , 0.1826171875    , -3.793334960937500e-2, -0.110107421875    , -2.279663085937500e-2, 3.51562500e-2, 1.931762695312500e-2, -3.662109375000e-3, -5.584716796875000e-3, -9.7656250000e-4, 5.187988281250000e-4, 2.441406250000e-4, 3.051757812500000e-5 },
    { 3.051757812500000e-5, 3.05175781250000e-4, 1.068115234375000e-3, 6.1035156250000e-4, -5.950927734375000e-3, -1.51977539062500e-2, 4.577636718750000e-4, 5.493164062500e-2, 6.729125976562500e-2, -6.56127929687500e-2, -0.213653564453125    , -6.8969726562500e-2, 0.298614501953125    , 0.33050537109375    , -0.147857666015625    , -0.47314453125    , -0.147857666015625    , 0.33050537109375    , 0.298614501953125    , -6.8969726562500e-2, -0.213653564453125    , -6.56127929687500e-2, 6.729125976562500e-2, 5.493164062500e-2, 4.577636718750000e-4, -1.51977539062500e-2, -5.950927734375000e-3, 6.1035156250000e-4, 1.068115234375000e-3, 3.05175781250000e-4, 3.051757812500000e-5 },
    { -3.051757812500000e-5, -3.6621093750000e-4, -1.739501953125000e-3, -3.41796875000e-3, 1.922607421875000e-3, 2.3071289062500e-2, 3.781127929687500e-2, -1.757812500e-2, -0.139801025390625    , -0.1414794921875    , 0.137786865234375    , 0.42041015625    , 0.190765380859375    , -0.4383544921875    , -0.621002197265625    , 0.    , 0.621002197265625    , 0.4383544921875    , -0.190765380859375    , -0.42041015625    , -0.137786865234375    , 0.1414794921875    , 0.139801025390625    , 1.757812500e-2, -3.781127929687500e-2, -2.3071289062500e-2, -1.922607421875000e-3, 3.41796875000e-3, 1.739501953125000e-3, 3.6621093750000e-4, 3.051757812500000e-5 },
    { 3.051757812500000e-5, 4.27246093750000e-4, 2.532958984375000e-3, 7.6904296875000e-3, 9.185791015625000e-3, -1.58081054687500e-2, -7.669067382812500e-2, -9.692382812500e-2, 6.045532226562500e-2, 0.34173583984375    , 0.345428466796875    , -0.2127685546875    , -0.823944091796875    , -0.57635498046875    , 0.483001708984375    , 1.10400390625    , 0.483001708984375    , -0.57635498046875    , -0.823944091796875    , -0.2127685546875    , 0.345428466796875    , 0.34173583984375    , 6.045532226562500e-2, -9.692382812500e-2, -7.669067382812500e-2, -1.58081054687500e-2, 9.185791015625000e-3, 7.6904296875000e-3, 2.532958984375000e-3, 4.27246093750000e-4, 3.051757812500000e-5 },
    { -3.051757812500000e-5, -4.88281250000e-4, -3.448486328125000e-3, -1.367187500e-2, -3.054809570312500e-2, -2.39257812500e-2, 6.857299804687500e-2, 0.2421875    , 0.278656005859375    , -0.12353515625    , -0.810699462890625    , -0.943359375    , 9.335327148437500e-2, 1.49365234375    , 1.587005615234375    , 0.    , -1.587005615234375    , -1.49365234375    , -9.335327148437500e-2, 0.943359375    , 0.810699462890625    , 0.12353515625    , -0.278656005859375    , -0.2421875    , -6.857299804687500e-2, 2.39257812500e-2, 3.054809570312500e-2, 1.367187500e-2, 3.448486328125000e-3, 4.88281250000e-4, 3.051757812500000e-5 },
    { 3.051757812500000e-5, 5.49316406250000e-4, 4.486083984375000e-3, 2.1606445312500e-2, 6.582641601562500e-2, 0.12030029296875    , 7.565307617187500e-2, -0.235107421875    , -0.755950927734375    , -0.91107177734375    , 2.316284179687500e-2, 1.7772216796875    , 2.627227783203125    , 1.04022216796875    , -2.040435791015625    , -3.62744140625    , -2.040435791015625    , 1.04022216796875    , 2.627227783203125    , 1.7772216796875    , 2.316284179687500e-2, -0.91107177734375    , -0.755950927734375    , -0.235107421875    , 7.565307617187500e-2, 0.12030029296875    , 6.582641601562500e-2, 2.1606445312500e-2, 4.486083984375000e-3, 5.49316406250000e-4, 3.051757812500000e-5 },
    { -3.051757812500000e-5, -6.1035156250000e-4, -5.645751953125000e-3, -3.17382812500e-2, -0.119171142578125    , -0.3052978515625    , -0.501251220703125    , -0.341796875    , 0.649261474609375    , 2.3162841796875    , 3.204193115234375    , 1.40380859375    , -3.000640869140625    , -6.6680908203125    , -5.667877197265625    , 0.    , 5.667877197265625    , 6.6680908203125    , 3.000640869140625    , -1.40380859375    , -3.204193115234375    , -2.3162841796875    , -0.649261474609375    , 0.341796875    , 0.501251220703125    , 0.3052978515625    , 0.119171142578125    , 3.17382812500e-2, 5.645751953125000e-3, 6.1035156250000e-4, 3.051757812500000e-5 },
    { 3.051757812500000e-5, 6.71386718750000e-4, 6.927490234375000e-3, 4.4311523437500e-2, 0.195220947265625    , 0.61968994140625    , 1.426239013671875    , 2.269287109375    , 1.961822509765625    , -1.00372314453125    , -6.524200439453125    , -11.1322021484375    , -9.535369873046875    , 0.13336181640625    , 12.469329833984375    , 18.13720703125    , 12.469329833984375    , 0.13336181640625    , -9.535369873046875    , -11.1322021484375    , -6.524200439453125    , -1.00372314453125    , 1.961822509765625    , 2.269287109375    , 1.426239013671875    , 0.61968994140625    , 0.195220947265625    , 4.4311523437500e-2, 6.927490234375000e-3, 6.71386718750000e-4, 3.051757812500000e-5 },
    { -3.051757812500000e-5, -7.324218750000e-4, -8.331298828125000e-3, -5.9570312500e-2, -0.299102783203125    , -1.114013671875    , -3.159942626953125    , -6.85546875    , -11.086578369140625    , -12.044677734375    , -4.516754150390625    , 13.1396484375    , 33.807220458984375    , 43.209228515625    , 30.606536865234375    , 0.    , -30.606536865234375    , -43.209228515625    , -33.807220458984375    , -13.1396484375    , 4.516754150390625    , 12.044677734375    , 11.086578369140625    , 6.85546875    , 3.159942626953125    , 1.114013671875    , 0.299102783203125    , 5.9570312500e-2, 8.331298828125000e-3, 7.324218750000e-4, 3.051757812500000e-5 },
    { 3.051757812500000e-5, 7.93457031250000e-4, 9.857177734375000e-3, 7.7758789062500e-2, 0.436431884765625    , 1.84954833984375    , 6.123504638671875    , 16.138916015625    , 34.080963134765625    , 57.21221923828125    , 73.77365112304688    , 65.1507568359375    , 18.203887939453125    , -58.81256103515625    , -132.62832641601563    , -163.23486328125    , -132.62832641601563    , -58.81256103515625    , 18.203887939453125    , 65.1507568359375    , 73.77365112304688    , 57.21221923828125    , 34.080963134765625    , 16.138916015625    , 6.123504638671875    , 1.84954833984375    , 0.436431884765625    , 7.7758789062500e-2, 9.857177734375000e-3, 7.93457031250000e-4, 3.051757812500000e-5 },
    { -3.051757812500000e-5, -8.5449218750000e-4, -1.150512695312500e-2, -9.91210937500e-2, -0.613311767578125    , -2.8992919921875    , -10.872344970703125    , -33.134765625    , -83.35464477539063    , -174.6478271484375    , -305.6336975097656    , -444.55810546875    , -527.9127502441406    , -487.3040771484375    , -295.8631896972656    , 0.    , 295.8631896972656    , 487.3040771484375    , 527.9127502441406    , 444.55810546875    , 305.6336975097656    , 174.6478271484375    , 83.35464477539063    , 33.134765625    , 10.872344970703125    , 2.8992919921875    , 0.613311767578125    , 9.91210937500e-2, 1.150512695312500e-2, 8.5449218750000e-4, 3.051757812500000e-5 },
    { 3.051757812500000e-5, 9.15527343750000e-4, 1.327514648437500e-2, 0.1239013671875    , 0.836334228515625    , 4.34893798828125    , 18.120574951171875    , 62.127685546875    , 178.61709594726563    , 436.61956787109375    , 916.9010925292969    , 1667.0928955078125    , 2639.563751220703    , 3654.7805786132813    , 4437.947845458984    , 4733.81103515625    , 4437.947845458984    , 3654.7805786132813    , 2639.563751220703    , 1667.0928955078125    , 916.9010925292969    , 436.61956787109375    , 178.61709594726563    , 62.127685546875    , 18.120574951171875    , 4.34893798828125    , 0.836334228515625    , 0.1239013671875    , 1.327514648437500e-2, 9.15527343750000e-4, 3.051757812500000e-5 }
};

////////////////
// B16 matrix //
////////////////

iris_real b16[][33] = {
